%YAML:1.0
---
opencv_ml_svm:
   format: 3
   svmType: C_SVC
   kernel:
      type: RBF
      gamma: 5.0000000000000000e-01
   C: 1.
   term_criteria: { epsilon:1.1920928955078125e-07, iterations:1000 }
   var_count: 64
   class_count: 31
   class_labels: !!opencv-matrix
      rows: 31
      cols: 1
      dt: i
      data: [ 1001, 1003, 1005, 1007, 1009, 1011, 1013, 1015, 1017, 1019,
          1021, 1023, 1025, 1027, 1029, 1031, 1033, 1035, 1037, 1039,
          1041, 1043, 1045, 1047, 1049, 1051, 1053, 1055, 1057, 1059,
          1061 ]
   sv_total: 2662
   support_vectors:
      - [ 2.10140839e-01, 2.36000597e-01, 2.09859058e-01, 1.40901893e-01,
          8.29752609e-02, 8.72144625e-02, 9.60030407e-02, 0.,
          6.61538467e-02, 0., 1.06901847e-01, 8.69232863e-02,
          7.21410364e-02, 1.73080251e-01, 1.86228842e-01, 1.32689506e-01,
          1.41108334e-01, 1.22624323e-01, 0., 1.45382792e-01,
          1.31857703e-02, 7.63064325e-02, 9.27129239e-02, 7.67610744e-02,
          1.10662661e-01, 1.20801389e-01, 9.00424570e-02, 7.01355860e-02,
          1.50016725e-01, 2.12453946e-01, 1.86149299e-01, 2.17843637e-01,
          1.20863672e-02, 0., 1.09464601e-02, 0., 1.53189376e-01,
          1.36522502e-01, 1.82403833e-01, 1.72481880e-01, 2.29871407e-01,
          8.48477855e-02, 1.93702206e-01, 3.82657833e-02, 4.02878923e-03,
          1.14393905e-02, 0., 7.16431253e-03, 3.77933905e-02,
          4.86526154e-02, 0., 5.63313328e-02, 1.29891530e-01,
          1.51601717e-01, 8.68802667e-02, 1.05656825e-01, 2.13713184e-01,
          1.45199075e-01, 2.13548660e-01, 1.42763212e-01, 0.,
          1.16573155e-01, 1.11770600e-01, 8.10956061e-02 ]
      - [ 1.82231724e-01, 1.70574397e-01, 2.19090626e-01, 9.37492326e-02,
          1.10825084e-01, 7.69461319e-02, 4.15192917e-02, 3.93828526e-02,
          8.16354677e-02, 4.56031039e-03, 6.59103915e-02, 1.47937223e-01,
          1.13500193e-01, 1.34107560e-01, 1.40007183e-01, 1.68336734e-01,
          1.53827220e-01, 1.39024049e-01, 1.71220377e-01, 9.44067240e-02,
          8.01647753e-02, 7.43070692e-02, 1.05482787e-01, 7.47089759e-02,
          1.43465832e-01, 1.54267281e-01, 1.40779793e-01, 1.01540327e-01,
          1.25506977e-02, 1.81057036e-01, 1.50775060e-01, 1.35754615e-01,
          1.42710865e-01, 5.03194332e-02, 5.51553592e-02, 9.15339291e-02,
          1.04401685e-01, 1.63904920e-01, 9.93870720e-02, 1.86984345e-01,
          2.38809839e-01, 1.74119234e-01, 1.16232134e-01, 8.65011737e-02,
          6.12200126e-02, 6.40770271e-02, 0., 8.70146304e-02,
          2.46462315e-01, 3.85094322e-02, 0., 0., 1.42169982e-01,
          7.38693103e-02, 8.60509574e-02, 1.28161907e-01, 2.59857595e-01,
          1.09632552e-01, 1.47148386e-01, 1.46961540e-01, 0.,
          6.49071187e-02, 7.99338147e-02, 5.83631136e-02 ]
      - [ 1.80180818e-01, 2.12649956e-01, 1.32169098e-01, 5.67697696e-02,
          1.31342439e-02, 1.59415156e-01, 8.02534670e-02, 3.19267288e-02,
          1.13305941e-01, 8.79461095e-02, 7.06613883e-02, 6.16790019e-02,
          8.81262794e-02, 1.60711676e-01, 1.83880314e-01, 2.06547797e-01,
          2.66177863e-01, 1.63792774e-01, 1.32362634e-01, 1.04974173e-01,
          1.00712419e-01, 2.87925750e-02, 9.72500145e-02, 5.84483333e-02,
          1.07531503e-01, 5.81559353e-02, 9.99061391e-02, 1.03774250e-01,
          1.00158185e-01, 1.53362110e-01, 1.90756738e-01, 1.92690536e-01,
          6.28495663e-02, 4.72280718e-02, 0., 6.21084757e-02,
          1.63032427e-01, 1.08961508e-01, 1.05979785e-01, 2.24876449e-01,
          2.01117918e-01, 1.48156241e-01, 1.27940238e-01, 0.,
          6.00083265e-03, 1.00243248e-01, 6.14448711e-02, 0.,
          4.24322952e-03, 0., 0., 0., 1.68673560e-01, 1.40715897e-01,
          1.87966138e-01, 1.12410195e-01, 2.17686132e-01, 2.04373866e-01,
          1.59049645e-01, 1.50670320e-01, 0., 0., 0., 0. ]
      - [ 1.89930364e-01, 1.72341391e-01, 1.89808980e-01, 1.37867451e-01,
          1.04070842e-01, 6.93027209e-03, 5.18852733e-02, 0.,
          5.84428869e-02, 7.20799193e-02, 0., 1.24208130e-01,
          1.46594018e-01, 2.03465194e-01, 1.61788806e-01, 7.88505226e-02,
          2.14882165e-01, 1.08654127e-01, 1.23428151e-01, 9.70021915e-03,
          6.97608739e-02, 1.07993372e-01, 7.25524649e-02, 1.12655416e-01,
          9.28076580e-02, 1.23445936e-01, 6.55934885e-02, 1.11517556e-01,
          7.40801096e-02, 1.26008675e-01, 1.15577631e-01, 2.12078452e-01,
          6.80109933e-02, 0., 1.11643337e-01, 9.80284140e-02,
          1.39421999e-01, 1.36862710e-01, 1.74558491e-01, 1.48007855e-01,
          2.12797970e-01, 1.49388790e-01, 1.56891450e-01, 8.85745659e-02,
          1.03224479e-01, 1.07746467e-01, 0., 0., 1.05467543e-01,
          6.06929231e-03, 1.18845120e-01, 0., 1.77030534e-01,
          1.67559758e-01, 9.79986861e-02, 7.86634535e-02, 2.31223300e-01,
          1.81288138e-01, 1.72253266e-01, 1.38988927e-01, 4.63924780e-02,
          9.35624540e-02, 8.80906805e-02, 1.55453712e-01 ]
      - [ 1.68196261e-01, 1.63439035e-01, 1.83595985e-01, 1.59731477e-01,
          8.67702141e-02, 4.26822528e-02, 8.01167730e-03, 0.,
          5.68400733e-02, 8.75333231e-03, 9.99994949e-02, 8.93167034e-02,
          1.81068689e-01, 1.58471644e-01, 1.93149254e-01, 1.41772339e-02,
          2.05461577e-01, 1.25202090e-01, 6.46751598e-02, 1.18208833e-01,
          8.26316103e-02, 1.15793295e-01, 1.09074280e-01, 0.,
          1.35990486e-01, 2.47129649e-02, 1.47990257e-01, 1.41134813e-01,
          1.54331587e-02, 9.31750685e-02, 7.17742071e-02, 1.89827546e-01,
          3.84185873e-02, 9.37555879e-02, 0., 1.07325628e-01,
          1.23986192e-01, 1.37699053e-01, 1.50220171e-01, 2.32015103e-01,
          2.01149926e-01, 8.97080526e-02, 9.24319848e-02, 9.17147845e-02,
          9.97902676e-02, 1.00408860e-01, 6.42443597e-02, 8.10541362e-02,
          1.17466681e-01, 8.26089680e-02, 1.26561016e-01, 5.58055639e-02,
          1.94173515e-01, 1.41454846e-01, 1.38182357e-01, 1.38230264e-01,
          1.59658149e-01, 1.93320081e-01, 1.69993237e-01, 1.58281446e-01,
          4.29913886e-02, 1.11180998e-01, 1.79585084e-01, 1.13132864e-01 ]
      - [ 1.65892199e-01, 1.55601725e-01, 1.95410013e-01, 1.23406872e-01,
          1.87657624e-02, 0., 1.05362646e-02, 5.46070375e-03,
          2.22127028e-02, 9.88318119e-03, 6.49390835e-03, 5.46070375e-03,
          1.79667950e-01, 1.41891301e-01, 1.47609398e-01, 9.37555805e-02,
          2.57748187e-01, 2.00681373e-01, 1.19297914e-01, 4.68091741e-02,
          4.78576049e-02, 0., 1.10300500e-02, 7.72260129e-03,
          7.47828484e-02, 3.65179265e-03, 1.07316233e-01, 8.66189674e-02,
          9.00123939e-02, 1.01501808e-01, 9.55279991e-02, 1.96742624e-01,
          1.97064519e-01, 1.02181181e-01, 8.78587142e-02, 0.,
          1.22831184e-02, 1.16218843e-01, 1.11162551e-01, 3.96304548e-01,
          1.38627931e-01, 1.21792117e-02, 0., 0., 1.06374919e-02,
          8.05731118e-02, 1.16587892e-01, 7.97016099e-02, 9.22256857e-02,
          1.71653777e-02, 4.53706123e-02, 6.58487380e-02, 1.82090439e-02,
          8.90624374e-02, 1.56101272e-01, 2.40119547e-01, 1.98814169e-01,
          2.20623493e-01, 2.16890618e-01, 9.53624472e-02, 1.31707832e-01,
          1.37202889e-01, 1.49050564e-01, 6.93413010e-03 ]
      - [ 2.02011615e-01, 1.95470184e-01, 1.33347631e-01, 7.00162351e-02,
          1.27037391e-01, 1.03060976e-01, 4.77727726e-02, 6.30241306e-03,
          6.53361827e-02, 7.11657554e-02, 1.02288090e-01, 6.91251010e-02,
          9.94323939e-02, 1.33342296e-01, 2.13661373e-01, 2.03993574e-01,
          2.50261933e-01, 1.18872941e-01, 1.25547871e-01, 4.96321963e-03,
          7.69882500e-02, 6.73958659e-03, 1.27525359e-01, 1.32247373e-01,
          1.42765954e-01, 1.25343129e-02, 1.20872289e-01, 1.04934961e-01,
          7.72108585e-02, 1.56352848e-01, 1.59413338e-01, 2.40235478e-01,
          0., 3.05719301e-02, 0., 3.06797456e-02, 1.02169186e-01,
          1.36159167e-01, 1.38772219e-01, 2.25717634e-01, 2.52814889e-01,
          9.00529921e-02, 9.89345163e-02, 0., 0., 5.90229640e-03,
          3.75310071e-02, 3.29366177e-02, 1.25542432e-01, 0.,
          5.41452058e-02, 0., 9.18819904e-02, 2.08345965e-01,
          1.24206036e-01, 1.10845797e-01, 2.00543121e-01, 1.82747945e-01,
          2.14213088e-01, 1.26772359e-01, 0., 6.87927157e-02,
          1.17387436e-01, 0. ]
      - [ 2.06555709e-01, 1.60449579e-01, 1.73940480e-01, 2.27871031e-01,
          1.06858954e-01, 8.07805657e-02, 0., 0., 4.61522117e-02,
          3.31569603e-03, 0., 1.72527492e-01, 8.76066759e-02,
          1.73683688e-01, 1.56039208e-01, 1.92545235e-01, 1.67497098e-01,
          1.17032707e-01, 7.98210278e-02, 0., 7.88609870e-03,
          1.24586552e-01, 8.04251879e-02, 0., 0., 1.14869386e-01,
          1.15290284e-01, 1.70353979e-01, 8.76099765e-02, 2.51252770e-01,
          1.51647627e-01, 2.17353791e-01, 0., 4.68910206e-03, 0.,
          6.29593991e-03, 1.21904001e-01, 1.08936645e-01, 1.04515925e-01,
          2.14307204e-01, 2.58932292e-01, 9.96218845e-02, 1.41844228e-01,
          1.37079448e-01, 4.95812204e-03, 0., 0., 0., 4.48872969e-02,
          3.91565673e-02, 0., 3.02425008e-02, 1.41399711e-01,
          1.74735546e-01, 1.47345275e-01, 1.15458854e-01, 1.28682837e-01,
          1.43122718e-01, 2.08198532e-01, 2.10501105e-01, 1.30357504e-01,
          0., 4.79541495e-02, 0. ]
      - [ 1.60356492e-01, 1.54872447e-01, 1.77637324e-01, 1.22113757e-01,
          1.32365301e-01, 3.59456763e-02, 5.94611317e-02, 6.94590583e-02,
          8.53400305e-02, 6.44909963e-02, 7.17660710e-02, 8.16077963e-02,
          1.47571236e-01, 1.52579293e-01, 1.38341069e-01, 1.64158449e-01,
          1.93799615e-01, 6.43220358e-03, 9.99667346e-02, 5.69572523e-02,
          1.03123412e-01, 9.26987380e-02, 1.03228815e-01, 1.70779526e-01,
          1.21931508e-01, 8.56776834e-02, 1.26339272e-01, 7.18461052e-02,
          5.22493385e-02, 7.33769089e-02, 2.17384864e-02, 2.95760363e-01,
          3.72125506e-02, 0., 9.72250178e-02, 9.84646752e-02,
          1.27726674e-01, 1.37293383e-01, 1.72199324e-01, 1.99715629e-01,
          1.79396167e-01, 1.20915227e-01, 1.00522593e-01, 1.07277624e-01,
          8.57860371e-02, 1.09184109e-01, 0., 6.49569854e-02,
          9.74100232e-02, 8.65674913e-02, 1.18593685e-01, 7.52685070e-02,
          1.48673907e-01, 1.83434844e-01, 1.22088209e-01, 1.58470631e-01,
          1.58271551e-01, 1.39278397e-01, 1.89750075e-01, 1.56000212e-01,
          1.16421111e-01, 1.48667082e-01, 7.29710460e-02, 1.32590920e-01 ]
      - [ 1.99447885e-01, 1.07846737e-01, 1.47487164e-01, 2.57824391e-01,
          8.99923295e-02, 0., 0., 0., 7.35954419e-02, 0., 9.82938409e-02,
          1.58604726e-01, 1.18209459e-01, 1.58387974e-01, 1.38521641e-01,
          2.12556928e-01, 1.34752616e-01, 1.27832815e-01, 0.,
          1.03813164e-01, 9.72802415e-02, 6.88293129e-02, 4.93793413e-02,
          4.98949597e-03, 8.13654959e-02, 6.18929639e-02, 1.31301925e-01,
          1.59834981e-01, 1.57668382e-01, 1.61882460e-01, 9.87731144e-02,
          2.11634099e-01, 7.16489777e-02, 7.50453547e-02, 0., 0.,
          1.16022527e-02, 0., 7.22310469e-02, 3.12168032e-01,
          1.97271556e-01, 1.62162259e-01, 3.73799279e-02, 4.98949597e-03,
          7.93600082e-03, 1.33985421e-02, 9.11041424e-02, 9.75425243e-02,
          2.47285850e-02, 6.92992136e-02, 9.35263336e-02, 4.00309041e-02,
          1.23929538e-01, 2.12416530e-01, 1.25237912e-01, 4.27576974e-02,
          1.23093523e-01, 1.44813120e-01, 1.87691137e-01, 2.34158903e-01,
          1.80685014e-01, 1.71324730e-01, 6.27857745e-02, 6.06365651e-02 ]
      - [ 2.38903821e-01, 2.14757755e-01, 2.16950282e-01, 5.85670881e-02,
          5.74277490e-02, 6.41411496e-03, 5.63283935e-02, 5.39360614e-03,
          1.63613241e-02, 1.02801109e-02, 6.27485365e-02, 3.57902460e-02,
          6.52222186e-02, 1.79663226e-01, 1.85568407e-01, 1.00192644e-01,
          2.15956166e-01, 1.85077623e-01, 1.25247687e-01, 9.11310688e-02,
          1.36525212e-02, 9.73560568e-03, 9.54301842e-03, 6.84892759e-03,
          5.39360614e-03, 5.10095758e-03, 9.07092821e-03, 1.05809849e-02,
          5.74260838e-02, 1.86995998e-01, 2.34881297e-01, 1.45745486e-01,
          0., 5.83277717e-02, 0., 1.03707761e-01, 7.05269650e-02,
          1.83322147e-01, 1.85136929e-01, 2.22216055e-01, 2.59629130e-01,
          1.58885226e-01, 6.00858405e-02, 0., 1.08470693e-01,
          3.36386822e-02, 5.95543049e-02, 2.24769358e-02, 0., 0., 0., 0.,
          1.86026260e-01, 2.01581046e-01, 1.18610524e-01, 1.36911124e-01,
          2.08327845e-01, 1.86181441e-01, 2.57556736e-01, 1.75727785e-01,
          0., 0., 0., 0. ]
      - [ 1.97462395e-01, 1.58683509e-01, 1.39531314e-01, 1.52262703e-01,
          2.70322673e-02, 4.26383503e-02, 6.83207959e-02, 7.11547807e-02,
          2.07748219e-01, 1.62075520e-01, 5.95257692e-02, 8.76749977e-02,
          7.18766972e-02, 1.05237156e-01, 1.29369095e-01, 2.29384661e-01,
          2.36356631e-01, 2.04391077e-01, 8.29103962e-02, 1.06972791e-01,
          3.14004049e-02, 8.98992792e-02, 4.92330045e-02, 3.76392901e-02,
          1.07808366e-01, 7.36754015e-02, 1.33085683e-01, 4.98258881e-02,
          1.30178779e-01, 1.05879672e-01, 8.63142461e-02, 1.62985757e-01,
          1.01100117e-01, 9.07868370e-02, 1.56189114e-01, 1.16638966e-01,
          1.21717937e-01, 1.37040153e-01, 7.60092959e-02, 1.33419722e-01,
          2.30753064e-01, 1.59180224e-01, 1.09250717e-01, 9.63874087e-02,
          5.09994812e-02, 0., 9.99568179e-02, 6.40642196e-02,
          1.79217055e-01, 1.12538695e-01, 5.73487170e-02, 4.24174890e-02,
          9.40144584e-02, 1.46982327e-01, 1.67513296e-01, 1.76817447e-01,
          1.67568609e-01, 1.56314462e-01, 2.14621589e-01, 1.22118756e-01,
          2.81983148e-02, 0., 4.54005115e-02, 1.51866218e-02 ]
      - [ 1.42112583e-01, 1.68016553e-01, 2.12754160e-01, 1.49941310e-01,
          1.48713008e-01, 3.93211059e-02, 2.90754139e-02, 0.,
          4.36304957e-02, 7.01751411e-02, 0., 1.09411359e-01,
          1.44935817e-01, 1.62228614e-01, 1.86747596e-01, 1.36584759e-01,
          2.28772506e-01, 1.86172247e-01, 1.13476306e-01, 6.40186891e-02,
          6.60260255e-03, 1.18640482e-01, 1.10584661e-01, 1.05682686e-01,
          8.26851800e-02, 8.87418091e-02, 1.46001741e-01, 1.31003425e-01,
          1.12708747e-01, 1.41472042e-01, 1.80691212e-01, 2.17953607e-01,
          0., 1.66334193e-02, 5.35618067e-02, 1.02868140e-01,
          1.35405406e-01, 1.26954436e-01, 1.75778046e-01, 1.92592815e-01,
          2.01218516e-01, 4.90127169e-02, 1.26686200e-01, 8.52585435e-02,
          6.30745143e-02, 0., 1.62535179e-02, 1.96252912e-02,
          7.15197250e-02, 3.20550893e-03, 4.37071845e-02, 0.,
          1.50861815e-01, 1.76499963e-01, 1.78983986e-01, 1.19095102e-01,
          1.82858631e-01, 1.50799915e-01, 1.85589239e-01, 1.88749850e-01,
          3.52966711e-02, 0., 1.02226511e-01, 0. ]
      - [ 2.01731265e-01, 1.84257090e-01, 1.93087026e-01, 2.13395670e-01,
          1.76936299e-01, 0., 3.19668977e-03, 0., 7.60305300e-03,
          5.72952107e-02, 1.31610975e-01, 6.61772788e-02, 1.51045084e-01,
          1.42293796e-01, 1.73059598e-01, 1.32981956e-01, 1.66907281e-01,
          5.38633317e-02, 7.71583766e-02, 9.66984481e-02, 8.95416513e-02,
          7.50549361e-02, 5.07091507e-02, 6.45344630e-02, 0.,
          4.55665290e-02, 1.04802176e-01, 1.69014469e-01, 2.07479715e-01,
          1.36342853e-01, 1.79064870e-01, 2.68257439e-01, 0.,
          4.52080183e-03, 0., 1.17912153e-02, 7.87060484e-02,
          1.05580918e-01, 1.19325712e-01, 2.38627002e-01, 2.20157966e-01,
          1.45180285e-01, 1.15294009e-01, 9.18899477e-02, 6.58443710e-03,
          0., 0., 0., 3.48415636e-02, 3.19668977e-03, 0., 0.,
          1.92297533e-01, 1.52868807e-01, 1.44360945e-01, 7.66641498e-02,
          1.84239477e-01, 1.64851010e-01, 2.18719065e-01, 1.86163038e-01,
          7.92086497e-02, 2.17040237e-02, 3.47901508e-02, 4.32559624e-02 ]
      - [ 1.81963846e-01, 1.73075691e-01, 1.90995425e-01, 1.72369540e-01,
          1.60499096e-01, 1.47617295e-01, 9.36182775e-03, 1.07221007e-02,
          9.74005535e-02, 6.52023731e-03, 4.69901524e-02, 1.36507481e-01,
          2.05142036e-01, 1.25989303e-01, 1.56055227e-01, 1.88908249e-01,
          2.10211962e-01, 1.44207329e-01, 1.21684648e-01, 7.95366615e-02,
          1.87891811e-01, 4.41861115e-02, 9.10940766e-02, 7.83431754e-02,
          1.14794791e-01, 1.34891108e-01, 1.43844053e-01, 1.44759580e-01,
          1.27197340e-01, 1.57407105e-01, 1.94291577e-01, 2.68144995e-01,
          9.92191117e-03, 1.71012077e-02, 1.68048497e-02, 0.,
          1.13802455e-01, 7.23826587e-02, 9.78846699e-02, 2.73065209e-01,
          1.31362677e-01, 1.40911996e-01, 0., 0., 1.16710281e-02,
          1.00413952e-02, 9.22100805e-03, 6.19040802e-03, 1.02574630e-02,
          5.79740200e-03, 0., 0., 1.07395872e-01, 1.61941767e-01,
          1.25339389e-01, 9.93377864e-02, 1.98634252e-01, 1.67724252e-01,
          1.67693719e-01, 1.13704100e-01, 0., 1.65304169e-02,
          3.26011865e-03, 1.75091177e-02 ]
      - [ 1.37553871e-01, 1.42806649e-01, 1.22191422e-01, 9.05709714e-02,
          8.03029314e-02, 1.28816158e-01, 6.34097531e-02, 1.29834879e-02,
          1.20745443e-01, 7.28854630e-03, 6.66999966e-02, 1.04209982e-01,
          1.23967983e-01, 1.76115796e-01, 1.50675803e-01, 8.69562849e-02,
          2.32070327e-01, 5.13439588e-02, 6.49233758e-02, 8.62181932e-02,
          6.66479245e-02, 0., 1.14639461e-01, 1.15799852e-01,
          7.53652006e-02, 8.49141926e-02, 1.01547338e-01, 8.50260332e-02,
          7.16571137e-02, 5.73981088e-03, 8.88126642e-02, 1.49194658e-01,
          1.77265525e-01, 1.44629106e-01, 9.42337066e-02, 3.68886143e-02,
          4.20848615e-02, 1.57659426e-01, 1.20976336e-01, 2.26037815e-01,
          2.31538489e-01, 1.24878488e-01, 1.12916753e-01, 8.40200335e-02,
          4.91062514e-02, 1.34466738e-01, 1.77104041e-01, 0.,
          1.01845391e-01, 1.40972167e-01, 1.11159630e-01, 1.11655697e-01,
          1.77271798e-01, 1.12873256e-01, 1.50463462e-01, 1.53133184e-01,
          1.88126743e-01, 1.37985080e-01, 1.91702932e-01, 1.66102141e-01,
          1.11550845e-01, 1.29383311e-01, 1.86210483e-01, 1.22817889e-01 ]
      - [ 1.48056835e-01, 1.69295415e-01, 2.01943770e-01, 9.58267450e-02,
          1.08309751e-02, 6.68358663e-03, 1.28887380e-02, 4.59623821e-02,
          7.32086971e-02, 5.36886379e-02, 6.92126751e-02, 7.74749601e-03,
          6.55344725e-02, 1.42417312e-01, 1.38589531e-01, 1.46066248e-01,
          2.08883151e-01, 8.18586722e-02, 5.62979318e-02, 2.75628828e-02,
          1.31512377e-02, 8.88496414e-02, 1.02210797e-01, 6.32327199e-02,
          7.67229423e-02, 1.40808940e-01, 1.53321654e-01, 7.14257732e-02,
          1.23492116e-02, 2.19317630e-01, 1.36576682e-01, 1.14587650e-01,
          2.98352897e-01, 5.72923645e-02, 5.12165204e-03, 0., 0., 0.,
          1.25577047e-01, 1.27308950e-01, 3.78242433e-01, 1.56960115e-01,
          1.09723829e-01, 2.53503565e-02, 0., 0., 3.15774456e-02,
          5.80995493e-02, 3.12137246e-01, 2.31526215e-02, 3.17158438e-02,
          2.78394464e-02, 8.76540411e-03, 1.41624600e-01, 7.95441568e-02,
          7.09258020e-02, 3.45614910e-01, 1.03070639e-01, 1.39929458e-01,
          7.14717731e-02, 3.42505495e-03, 0., 7.61962682e-02,
          8.24045688e-02 ]
      - [ 2.01981544e-01, 1.69811249e-01, 2.10522264e-01, 1.49229378e-01,
          1.50990650e-01, 8.38848576e-02, 7.10237399e-02, 0.,
          3.07920203e-02, 1.00619607e-01, 8.13832507e-02, 1.08775437e-01,
          1.21399693e-01, 2.09880576e-01, 1.55482501e-01, 1.35612875e-01,
          2.57939219e-01, 1.21579714e-01, 1.47396326e-01, 4.93542403e-02,
          4.01782766e-02, 4.81550805e-02, 1.14857838e-01, 1.23861954e-01,
          1.73280358e-01, 4.93220203e-02, 1.26785180e-02, 6.28417209e-02,
          1.14629008e-01, 1.47419974e-01, 1.42659009e-01, 2.56229758e-01,
          4.58338782e-02, 3.63647118e-02, 3.71181071e-02, 3.95926349e-02,
          1.54933646e-01, 1.56622916e-01, 1.62450314e-01, 1.97294965e-01,
          2.27452442e-01, 5.33471964e-02, 3.46397012e-02, 4.32692766e-02,
          5.09569384e-02, 3.94430012e-02, 0., 3.62364687e-02,
          3.59240212e-02, 0., 0., 0., 1.50048971e-01, 1.45130768e-01,
          1.53282568e-01, 1.24912784e-01, 1.86930507e-01, 1.67155653e-01,
          1.95788622e-01, 1.76346183e-01, 5.14359139e-02, 0.,
          1.90691762e-02, 0. ]
      - [ 2.14067876e-01, 1.72029987e-01, 2.09255263e-01, 1.62436202e-01,
          8.87900069e-02, 6.41227216e-02, 0., 7.11869895e-02,
          9.06197876e-02, 0., 0., 0., 1.87199861e-01, 1.70707032e-01,
          1.69904843e-01, 1.13642223e-01, 2.65218794e-01, 1.06966160e-01,
          1.42263874e-01, 8.82915035e-02, 7.87597746e-02, 4.21146154e-02,
          0., 1.13996156e-01, 1.54119104e-01, 1.03861071e-01,
          6.97318837e-02, 1.83418006e-01, 1.46807194e-01, 1.23717636e-01,
          1.42027155e-01, 2.14003742e-01, 2.97398977e-02, 2.03869212e-02,
          5.73220430e-03, 0., 1.53450191e-01, 1.71765059e-01,
          8.12610090e-02, 2.44673565e-01, 2.21075848e-01, 1.08179793e-01,
          1.08851735e-02, 0., 0., 6.54536532e-03, 2.66999006e-02,
          6.12079026e-03, 9.62164700e-02, 4.45076227e-02, 2.07989197e-02,
          0., 4.82018990e-03, 1.78950995e-01, 1.67934552e-01,
          1.21732362e-01, 2.08943233e-01, 1.91384599e-01, 1.19989157e-01,
          1.33411601e-01, 8.89034867e-02, 5.70130460e-02, 1.47756070e-01,
          4.42398041e-02 ]
      - [ 1.97689891e-01, 1.63524896e-01, 1.83745503e-01, 1.79087251e-01,
          3.00008897e-02, 1.80628411e-02, 5.74655943e-02, 0.,
          5.48480451e-03, 0., 0., 0., 1.89397514e-01, 1.96405545e-01,
          1.77819088e-01, 1.40149906e-01, 2.40230456e-01, 1.42548755e-01,
          1.64927870e-01, 1.17512301e-01, 1.17699087e-01, 5.78306504e-02,
          7.98918605e-02, 1.09806411e-01, 1.18374109e-01, 9.10324603e-02,
          1.34708732e-01, 2.17867985e-01, 1.11038767e-01, 1.14432029e-01,
          1.55862108e-01, 2.10014433e-01, 2.88948566e-02, 1.40827307e-02,
          7.56812282e-03, 3.39013375e-02, 1.31650623e-02, 1.32933095e-01,
          1.58762127e-01, 2.07538545e-01, 2.79788077e-01, 4.87039611e-02,
          2.18881555e-02, 0., 9.13636573e-03, 0., 1.64893977e-02,
          8.44679121e-03, 1.13039196e-01, 4.35169116e-02, 0., 0.,
          8.25503394e-02, 1.31704018e-01, 1.75530583e-01, 1.64680734e-01,
          1.77907392e-01, 2.12774768e-01, 1.86235428e-01, 1.61147714e-02,
          1.02611296e-02, 8.40654001e-02, 1.14167176e-01, 5.38910255e-02 ]
      - [ 2.09717870e-01, 1.97748736e-01, 2.19623193e-01, 1.39380634e-01,
          1.29707232e-01, 1.36580810e-01, 6.30958145e-03, 7.08019137e-02,
          1.17357239e-01, 0., 8.03844482e-02, 1.71041548e-01,
          1.45279244e-01, 1.73933208e-01, 1.65345043e-01, 1.71625212e-01,
          1.86487779e-01, 1.40661925e-01, 1.88645631e-01, 7.93368369e-02,
          1.06114084e-02, 1.14801325e-01, 1.18746996e-01, 1.09044492e-01,
          1.58696428e-01, 1.32632732e-01, 1.51710182e-01, 9.36345309e-02,
          7.62648135e-02, 2.08192468e-01, 1.68598548e-01, 1.55798793e-01,
          5.97550683e-02, 8.92309565e-03, 0., 6.65509701e-02,
          1.05893500e-01, 1.44624338e-01, 1.46956012e-01, 1.69855326e-01,
          2.38278300e-01, 1.75071552e-01, 0., 1.19378626e-01,
          6.44837096e-02, 0., 0., 0., 9.68684629e-03, 8.14563408e-03, 0.,
          0., 1.67438179e-01, 1.21297248e-01, 9.24447551e-02,
          1.12210102e-01, 1.14158921e-01, 8.88727456e-02, 1.04269169e-01,
          2.15442628e-01, 7.50339916e-03, 0., 1.09285153e-02, 0. ]
      - [ 1.76065117e-01, 1.31347969e-01, 9.08911079e-02, 1.40902430e-01,
          9.95741263e-02, 8.96851048e-02, 8.55402276e-02, 1.75089791e-01,
          1.31426066e-01, 6.77145198e-02, 1.09088682e-01, 1.03488050e-01,
          1.16361335e-01, 1.05940148e-01, 1.26223028e-01, 2.03601673e-01,
          1.59443170e-01, 3.61299366e-02, 6.05850965e-02, 7.35986158e-02,
          5.12370002e-03, 7.27303475e-02, 0., 1.73159659e-01,
          1.32401928e-01, 1.48966625e-01, 6.42018244e-02, 1.30331874e-01,
          6.50534034e-02, 7.54733905e-02, 7.25958347e-02, 2.61804938e-01,
          8.85970518e-02, 1.37412414e-01, 1.06345668e-01, 7.65053853e-02,
          1.07470915e-01, 1.42484531e-01, 1.23536855e-01, 1.36587441e-01,
          2.24552974e-01, 1.64944336e-01, 1.07734054e-01, 3.77598219e-02,
          8.49292204e-02, 1.08525619e-01, 1.13586858e-01, 1.61467031e-01,
          9.50950980e-02, 1.26758292e-01, 7.41366148e-02, 4.57323603e-02,
          1.12462483e-01, 1.70356721e-01, 1.38750330e-01, 1.29282564e-01,
          1.14004545e-01, 1.51825771e-01, 1.65733680e-01, 1.76059544e-01,
          8.79002586e-02, 1.34644374e-01, 1.55931726e-01, 1.09966494e-01 ]
      - [ 1.85812712e-01, 1.85485527e-01, 2.03488946e-01, 1.34381413e-01,
          1.39472270e-02, 4.62399349e-02, 1.08067811e-01, 9.15877055e-03,
          9.40321852e-03, 5.51192351e-02, 3.83615792e-02, 5.28781815e-03,
          1.43028900e-01, 1.81307301e-01, 2.03077137e-01, 1.45398095e-01,
          1.95113584e-01, 1.25368223e-01, 6.01051487e-02, 7.32682720e-02,
          1.22959511e-02, 8.72136559e-03, 5.39508574e-02, 1.00890018e-01,
          9.22906250e-02, 1.40641525e-01, 6.48466349e-02, 1.34141237e-01,
          1.10982582e-01, 1.42599270e-01, 1.41497225e-01, 2.45105311e-01,
          0., 5.45970127e-02, 0., 5.11806346e-02, 1.40134200e-01,
          1.64793015e-01, 1.90314487e-01, 1.49742395e-01, 2.45812684e-01,
          1.33155659e-01, 1.59557551e-01, 1.07586600e-01, 5.06315604e-02,
          4.08610664e-02, 5.40148988e-02, 4.72601801e-02, 7.30794072e-02,
          6.66789636e-02, 3.89403887e-02, 5.28781815e-03, 1.20312467e-01,
          1.77135408e-01, 1.57966271e-01, 1.06928185e-01, 1.74105674e-01,
          1.65754363e-01, 2.31904194e-01, 1.53520837e-01, 0.,
          9.47967172e-02, 1.02535449e-01, 1.18429713e-01 ]
      - [ 2.08519995e-01, 1.45111114e-01, 1.82825655e-01, 2.01264873e-01,
          1.72394291e-01, 6.82607247e-03, 0., 9.88087151e-03,
          5.50482012e-02, 5.38749769e-02, 1.01710498e-01, 1.66527778e-01,
          1.19276069e-01, 8.05426016e-02, 1.04943700e-01, 1.10867046e-01,
          2.07097009e-01, 5.25390878e-02, 0., 0., 9.60495993e-02,
          5.61203770e-02, 7.09711984e-02, 0., 6.42276183e-03,
          1.48764506e-01, 7.65863135e-02, 1.64102882e-01, 1.07864447e-01,
          1.18600428e-01, 1.27048001e-01, 1.24215074e-01, 1.69252872e-01,
          1.32715315e-01, 5.82174174e-02, 6.62724599e-02, 4.65720035e-02,
          1.64785981e-01, 1.39296100e-01, 2.85898119e-01, 1.78155571e-01,
          1.34329289e-01, 5.01614362e-02, 6.38743415e-02, 1.65427402e-02,
          9.49261859e-02, 1.01902939e-01, 1.15511931e-01, 7.45691136e-02,
          1.81032959e-02, 7.11698979e-02, 9.65990797e-02, 1.39933378e-01,
          1.08282357e-01, 7.06147105e-02, 7.86330700e-02, 1.22340001e-01,
          1.79822430e-01, 2.07717463e-01, 1.93387538e-01, 2.24149704e-01,
          1.64122999e-01, 1.40248597e-01, 8.35536867e-02 ]
      - [ 1.52551323e-01, 1.44622669e-01, 1.33230716e-01, 7.75952190e-02,
          0., 0., 0., 0., 0., 0., 0., 0., 0., 1.68319449e-01,
          1.56517819e-01, 1.00477196e-01, 2.79172063e-01, 1.47125751e-01,
          0., 0., 0., 0., 0., 0., 0., 0., 0., 0., 0., 1.04653992e-01,
          1.27888322e-01, 1.34098068e-01, 1.16416141e-01, 8.57764930e-02,
          1.24424100e-01, 3.00536186e-01, 1.27737030e-01, 2.37366363e-01,
          9.68568549e-02, 5.56754600e-03, 3.04406464e-01, 6.44884491e-03,
          0., 0., 2.00459316e-01, 1.58662826e-01, 8.29504132e-02,
          9.84094664e-02, 1.50266334e-01, 1.05707131e-01, 1.47369638e-01,
          1.21459119e-01, 3.28367501e-02, 1.08852759e-02, 9.12004430e-03,
          1.83728367e-01, 3.39169115e-01, 1.31430820e-01, 7.20260590e-02,
          1.94018424e-01, 1.49887145e-01, 1.65236160e-01, 1.03093669e-01,
          5.56754600e-03 ]
      - [ 1.36963561e-01, 1.50223628e-01, 1.89304575e-01, 1.69757903e-01,
          1.66414872e-01, 8.14971179e-02, 5.28176166e-02, 6.22431561e-03,
          6.06250670e-03, 1.02222953e-02, 7.68679306e-02, 1.35169134e-01,
          2.21391067e-01, 1.63156748e-01, 1.06224850e-01, 7.04412982e-02,
          1.40089095e-01, 8.51177052e-02, 4.89796624e-02, 9.31359380e-02,
          1.10685723e-02, 7.40200048e-03, 9.44757015e-02, 9.79227796e-02,
          9.47861820e-02, 9.64049101e-02, 1.49476409e-01, 6.55041337e-02,
          1.75226659e-01, 1.13611743e-01, 6.34499565e-02, 2.17663929e-01,
          1.20361879e-01, 9.51438099e-02, 9.42942873e-02, 6.96756095e-02,
          1.01408646e-01, 8.31091851e-02, 1.72849536e-01, 1.69271067e-01,
          2.01283306e-01, 9.98497382e-02, 1.66313052e-01, 7.62319844e-03,
          1.01255774e-01, 8.35654661e-02, 1.04666442e-01, 8.21329579e-02,
          5.65472990e-02, 8.49191844e-02, 1.17269494e-01, 1.36552870e-01,
          1.78104058e-01, 1.34287924e-01, 1.31158739e-01, 1.11419767e-01,
          1.22065268e-01, 1.67862356e-01, 1.23939171e-01, 2.33996689e-01,
          1.92856297e-01, 1.17157601e-01, 1.64770991e-01, 6.71220645e-02 ]
      - [ 1.69423610e-01, 1.65123314e-01, 1.69585928e-01, 1.79879054e-01,
          1.10689022e-01, 1.08747631e-01, 0., 3.60794552e-02,
          2.94721089e-02, 6.34608343e-02, 1.03538103e-01, 1.18641838e-01,
          1.60004526e-01, 1.69462025e-01, 1.63771480e-01, 1.19119838e-01,
          2.29065523e-01, 1.41354993e-01, 1.09462202e-01, 7.67543465e-02,
          9.80885476e-02, 1.03468597e-01, 1.09691188e-01, 8.08553398e-02,
          1.70281380e-01, 1.16654210e-01, 5.50888525e-03, 7.60059506e-02,
          1.19290605e-01, 1.15028642e-01, 1.34396046e-01, 2.03967467e-01,
          7.34509155e-02, 7.40367025e-02, 8.47200081e-02, 5.88233257e-03,
          1.59653142e-01, 1.94044068e-01, 1.41841784e-01, 1.87551737e-01,
          1.93915740e-01, 1.10160626e-01, 3.92088778e-02, 1.78730506e-02,
          1.25370938e-02, 1.24992048e-02, 5.74179925e-02, 7.54442587e-02,
          1.25033274e-01, 1.09317921e-01, 6.55585006e-02, 0.,
          5.26335314e-02, 1.68118373e-01, 1.32367209e-01, 1.46448210e-01,
          1.70156792e-01, 1.93313345e-01, 1.79448083e-01, 1.55929580e-01,
          6.87852278e-02, 1.46799341e-01, 8.22491050e-02, 1.12071216e-01 ]
      - [ 1.74840689e-01, 2.10484117e-01, 1.23193912e-01, 1.12617202e-01,
          5.10686301e-02, 1.37948453e-01, 7.81709030e-02, 1.11600012e-02,
          1.10152833e-01, 8.86650085e-02, 1.23772152e-01, 8.29444528e-02,
          1.10435255e-01, 1.70158595e-01, 2.30069607e-01, 1.28341928e-01,
          1.66840062e-01, 1.99340671e-01, 1.05730049e-01, 5.58000058e-03,
          1.13567393e-02, 8.42626486e-03, 7.47919381e-02, 1.20228194e-01,
          1.56677216e-01, 9.50887576e-02, 8.49945471e-02, 7.89131317e-03,
          1.17408158e-02, 1.47415519e-01, 1.97750077e-01, 2.45383263e-01,
          7.03862309e-02, 8.06230232e-02, 6.83864430e-02, 8.77803564e-02,
          1.25738442e-01, 9.62739736e-02, 7.71297887e-02, 1.54106110e-01,
          3.11278313e-01, 1.49380237e-01, 6.63577672e-03, 1.26317173e-01,
          1.23922080e-01, 9.10972804e-02, 9.21735838e-02, 8.80981162e-02,
          6.27573021e-03, 3.73157137e-03, 0., 8.53597820e-02,
          1.59436479e-01, 1.29366472e-01, 1.75415248e-01, 9.95715111e-02,
          1.92584261e-01, 1.69933423e-01, 9.50074568e-02, 1.22039899e-01,
          1.47484526e-01, 0., 0., 0. ]
      - [ 1.68283626e-01, 1.61663324e-01, 8.90244693e-02, 9.97548476e-02,
          1.01357631e-01, 8.96739960e-02, 1.40570970e-02, 8.73006415e-03,
          5.66734970e-02, 4.49084938e-02, 2.24594139e-02, 0.,
          6.94276486e-03, 1.00701340e-01, 2.22404674e-01, 1.20262533e-01,
          2.55054951e-01, 1.28211513e-01, 1.13354750e-01, 4.36503207e-03,
          7.76224723e-03, 4.01081331e-02, 7.07204491e-02, 6.39246330e-02,
          1.14922985e-01, 2.31694225e-02, 1.27600640e-01, 0.,
          9.80729908e-02, 1.66618228e-01, 8.12553689e-02, 1.00127965e-01,
          2.59863496e-01, 9.48853493e-02, 5.23280166e-02, 0., 0.,
          9.96569842e-02, 1.54796571e-01, 1.76655382e-01, 3.53915691e-01,
          1.35018691e-01, 6.97736144e-02, 0., 0., 0., 0., 1.28723234e-01,
          3.08139652e-01, 0., 0., 0., 7.76224723e-03, 1.32905692e-01,
          1.30280524e-01, 1.22599967e-01, 3.54643941e-01, 1.96109936e-01,
          6.20099977e-02, 3.55980769e-02, 0., 0., 6.96281716e-02,
          1.09159142e-01 ]
      - [ 2.79692203e-01, 1.13744646e-01, 1.13493763e-01, 1.55819103e-01,
          1.07750975e-01, 0., 3.58636677e-02, 6.10399023e-02,
          2.42677674e-01, 1.05951004e-01, 0., 8.04792624e-03,
          1.60616547e-01, 7.05462098e-02, 1.27256632e-01, 0.,
          2.18251407e-01, 1.85754955e-01, 1.00040138e-01, 1.26808092e-01,
          8.41516852e-02, 6.48927689e-02, 5.84674962e-02, 4.00957651e-02,
          1.32059768e-01, 8.03235769e-02, 1.49281874e-01, 1.40090406e-01,
          1.23676576e-01, 1.24246031e-01, 1.13805450e-01, 8.89235511e-02,
          7.69204050e-02, 8.67355019e-02, 1.68381095e-01, 9.60344970e-02,
          1.60825267e-01, 1.97372526e-01, 1.03500605e-01, 1.78230152e-01,
          1.76298276e-01, 1.79809649e-02, 4.88267392e-02, 0.,
          1.09029012e-02, 9.04149115e-02, 8.06163698e-02, 1.22118115e-01,
          8.48580450e-02, 1.10314496e-01, 1.15000539e-01, 0.,
          1.42773148e-02, 1.28229707e-01, 1.32128850e-01, 9.36022624e-02,
          1.66999251e-01, 2.44266704e-01, 2.08811551e-01, 9.19260606e-02,
          1.28807472e-02, 1.21932648e-01, 1.46037206e-01, 1.50742009e-01 ]
      - [ 1.15293182e-01, 1.62993297e-01, 1.68184042e-01, 1.90906823e-01,
          6.29175007e-02, 1.08893104e-01, 7.42137283e-02, 0.,
          7.77682737e-02, 9.16138962e-02, 4.91375178e-02, 8.96224529e-02,
          1.60298586e-01, 1.29919365e-01, 1.54591516e-01, 1.02170438e-01,
          2.19103843e-01, 1.67914867e-01, 8.59350413e-02, 9.63262916e-02,
          6.75183386e-02, 6.52714595e-02, 6.75248802e-02, 1.68744445e-01,
          1.59160361e-01, 9.67864469e-02, 5.82895102e-03, 6.63725212e-02,
          9.49455872e-02, 1.38851508e-01, 1.04940265e-01, 1.88120946e-01,
          6.47134036e-02, 7.79125765e-02, 5.82274348e-02, 6.51241690e-02,
          2.06021354e-01, 1.69621974e-01, 1.91948548e-01, 1.29121944e-01,
          1.34657905e-01, 1.22129358e-01, 7.32071102e-02, 6.66050911e-02,
          9.64485258e-02, 4.15569581e-02, 6.94722980e-02, 9.51325968e-02,
          1.13868847e-01, 9.28554907e-02, 1.03997074e-01, 1.04275644e-01,
          2.26598710e-01, 1.34324491e-01, 1.20799407e-01, 9.32115987e-02,
          1.77878693e-01, 1.61906928e-01, 1.61189899e-01, 2.08198100e-01,
          1.27082482e-01, 1.60408318e-01, 7.36504868e-02, 5.40569685e-02 ]
      - [ 1.74682230e-01, 8.07092860e-02, 2.05508009e-01, 1.18689120e-01,
          4.66290265e-02, 3.87085192e-02, 8.96505192e-02, 4.56976518e-03,
          5.51153794e-02, 8.73086136e-03, 6.51347116e-02, 1.38466388e-01,
          1.33924827e-01, 1.38876885e-01, 1.17641635e-01, 7.59724304e-02,
          1.88559353e-01, 1.21295705e-01, 8.95081908e-02, 4.01507542e-02,
          5.46327755e-02, 1.30230099e-01, 1.19021751e-01, 1.70158938e-01,
          1.09634444e-01, 8.95099714e-02, 1.33981928e-01, 4.20958325e-02,
          5.17222434e-02, 9.85202268e-02, 6.75540045e-02, 2.63355672e-01,
          1.41976684e-01, 2.09602639e-02, 1.08053446e-01, 5.44043332e-02,
          1.19921699e-01, 1.17353335e-01, 1.80048570e-01, 1.98925510e-01,
          1.83440894e-01, 1.11940399e-01, 9.92724150e-02, 7.31827095e-02,
          8.46265107e-02, 8.13530609e-02, 1.30126238e-01, 8.91204551e-02,
          1.47824243e-01, 1.33502051e-01, 5.16113043e-02, 6.91298768e-02,
          1.90273553e-01, 1.87758297e-01, 1.36608437e-01, 1.52028501e-01,
          1.55481264e-01, 1.66512296e-01, 1.49203151e-01, 1.51185945e-01,
          1.27019152e-01, 1.57207072e-01, 1.06845386e-01, 1.32254690e-01 ]
      - [ 2.11374208e-01, 1.50785238e-01, 1.89230129e-01, 6.34809136e-02,
          7.71923438e-02, 5.22046201e-02, 6.10656142e-02, 8.27262551e-03,
          7.68642575e-02, 2.91071599e-03, 0., 7.78057128e-02,
          1.11148901e-01, 1.31861016e-01, 1.09479174e-01, 1.57159969e-01,
          2.45255843e-01, 9.01325643e-02, 7.56440386e-02, 6.37430772e-02,
          8.39019641e-02, 0., 8.19039270e-02, 3.15184221e-02,
          1.05712980e-01, 6.81622177e-02, 1.73802555e-01, 7.63984248e-02,
          1.57526568e-01, 1.54438674e-01, 1.09210268e-01, 8.66925865e-02,
          2.64266670e-01, 1.22031547e-01, 5.85846789e-02, 3.77518982e-02,
          8.47877283e-03, 1.08119838e-01, 1.04071900e-01, 2.00620636e-01,
          3.62288058e-01, 1.21178731e-01, 0., 0., 1.03843333e-02, 0.,
          2.91071599e-03, 0., 2.85155952e-01, 5.04150847e-03, 0., 0., 0.,
          7.47223496e-02, 9.57562700e-02, 8.00553560e-02, 3.66920888e-01,
          1.00114711e-01, 1.37967542e-01, 0., 5.75359762e-02, 0.,
          7.31631592e-02, 1.25540718e-01 ]
      - [ 1.37553871e-01, 1.42806649e-01, 1.22191422e-01, 9.05709714e-02,
          8.03029314e-02, 1.28816158e-01, 6.34097531e-02, 1.29834879e-02,
          1.20745443e-01, 7.28854630e-03, 6.66999966e-02, 1.04209982e-01,
          1.23967983e-01, 1.76115796e-01, 1.50675803e-01, 8.69562849e-02,
          2.32070327e-01, 5.13439588e-02, 6.49233758e-02, 8.62181932e-02,
          6.66479245e-02, 0., 1.14639461e-01, 1.15799852e-01,
          7.53652006e-02, 8.49141926e-02, 1.01547338e-01, 8.50260332e-02,
          7.16571137e-02, 5.73981088e-03, 8.88126642e-02, 1.49194658e-01,
          1.77265525e-01, 1.44629106e-01, 9.42337066e-02, 3.68886143e-02,
          4.20848615e-02, 1.57659426e-01, 1.20976336e-01, 2.26037815e-01,
          2.31538489e-01, 1.24878488e-01, 1.12916753e-01, 8.40200335e-02,
          4.91062514e-02, 1.34466738e-01, 1.77104041e-01, 0.,
          1.01845391e-01, 1.40972167e-01, 1.11159630e-01, 1.11655697e-01,
          1.77271798e-01, 1.12873256e-01, 1.50463462e-01, 1.53133184e-01,
          1.88126743e-01, 1.37985080e-01, 1.91702932e-01, 1.66102141e-01,
          1.11550845e-01, 1.29383311e-01, 1.86210483e-01, 1.22817889e-01 ]
      - [ 1.80183038e-01, 2.07997337e-01, 1.75742522e-01, 1.47813484e-01,
          8.29938501e-02, 0., 1.03975639e-01, 7.73662329e-02,
          8.08993727e-02, 7.22042844e-02, 0., 9.08404514e-02,
          1.35429680e-01, 2.02265367e-01, 1.55952871e-01, 1.62957013e-01,
          1.65786996e-01, 1.10262677e-01, 1.24147967e-01, 7.92430993e-03,
          1.03157628e-02, 5.83035313e-03, 6.55729650e-03, 1.24094971e-01,
          1.55047685e-01, 1.25620693e-01, 5.86772859e-02, 6.13841899e-02,
          1.15092725e-01, 1.90653682e-01, 1.54306948e-01, 2.39928886e-01,
          3.95704471e-02, 0., 5.34288734e-02, 8.53871778e-02,
          1.56653732e-01, 1.06502049e-01, 1.82735413e-01, 1.58038810e-01,
          2.28538930e-01, 1.36642084e-01, 1.00216784e-01, 1.42591864e-01,
          8.90189260e-02, 3.90681513e-02, 4.87228893e-02, 4.72155102e-02,
          6.58074096e-02, 2.93825231e-02, 4.33635861e-02, 0.,
          1.82325453e-01, 8.15046802e-02, 1.57624245e-01, 1.24108300e-01,
          1.48867860e-01, 1.79219291e-01, 1.67924345e-01, 1.94152191e-01,
          1.25531316e-01, 9.25056040e-02, 1.26555577e-01, 0. ]
      - [ 1.69349268e-01, 1.54412344e-01, 2.52034754e-01, 1.55324444e-01,
          7.90847316e-02, 9.07317027e-02, 7.71814585e-02, 3.64158414e-02,
          3.29356715e-02, 1.22991413e-01, 1.10097520e-01, 7.48386979e-02,
          1.44511193e-01, 1.43163025e-01, 1.88960597e-01, 1.54698193e-01,
          2.65933335e-01, 9.74126533e-02, 1.75081015e-01, 7.92146008e-03,
          9.62295942e-03, 7.08755702e-02, 9.02049541e-02, 1.51093379e-01,
          1.54044330e-01, 1.19769335e-01, 7.29271397e-02, 6.81074113e-02,
          9.03956220e-02, 1.62160546e-01, 1.58441842e-01, 2.33004346e-01,
          0., 5.63034341e-02, 3.82865258e-02, 0., 6.60413504e-02,
          1.80552736e-01, 1.63614944e-01, 1.99927628e-01, 2.13435128e-01,
          1.01561025e-01, 3.46362144e-02, 8.98225233e-02, 4.97054197e-02,
          4.27092835e-02, 0., 6.68347999e-02, 3.63713666e-03, 0., 0.,
          1.13536961e-01, 1.28034949e-01, 1.16689071e-01, 1.50226399e-01,
          1.56333849e-01, 1.75454021e-01, 1.38323337e-01, 1.48529515e-01,
          2.14138851e-01, 5.51110953e-02, 0., 3.43445800e-02, 0. ]
      - [ 1.50771216e-01, 1.84578523e-01, 1.70418188e-01, 1.77160278e-01,
          1.45763472e-01, 5.68351671e-02, 4.65276837e-03, 0.,
          7.17148930e-02, 7.35356733e-02, 0., 8.44458714e-02,
          1.69525012e-01, 2.23511145e-01, 1.11088999e-01, 1.27705216e-01,
          2.42374554e-01, 1.48083881e-01, 9.12454724e-02, 1.21691212e-01,
          7.03028813e-02, 1.05162159e-01, 9.52634588e-02, 9.74771455e-02,
          1.50271446e-01, 1.28316000e-01, 4.86805104e-02, 1.09156623e-01,
          1.53659329e-01, 9.91993695e-02, 8.20109025e-02, 2.48929799e-01,
          0., 0., 4.80815172e-02, 6.62624687e-02, 1.59864366e-01,
          1.54861405e-01, 1.52411848e-01, 1.22464821e-01, 2.23513186e-01,
          1.01092130e-01, 1.21916413e-01, 1.21478915e-01, 0., 0.,
          3.29000410e-03, 0., 1.31492183e-01, 0., 6.51737079e-02, 0.,
          1.35066211e-01, 1.90277070e-01, 1.66087136e-01, 1.56541035e-01,
          1.70831740e-01, 1.41223103e-01, 1.95167452e-01, 1.05046988e-01,
          4.45050225e-02, 1.16035037e-01, 8.13114792e-02, 8.19739401e-02 ]
      - [ 1.41188070e-01, 2.42060319e-01, 1.16133861e-01, 1.50179520e-01,
          8.12679529e-02, 1.16537564e-01, 5.65094016e-02, 0.,
          8.07701126e-02, 5.98806776e-02, 1.07693985e-01, 7.70898685e-02,
          9.87611189e-02, 1.76670074e-01, 1.82069570e-01, 1.39914855e-01,
          2.10729644e-01, 9.16100219e-02, 9.33024287e-02, 1.09109856e-01,
          1.46704875e-02, 6.24703839e-02, 6.00509234e-02, 1.09496921e-01,
          1.17024742e-01, 1.26867115e-01, 1.11264154e-01, 0.,
          1.88905373e-01, 8.64403471e-02, 1.05598122e-01, 1.84149995e-01,
          9.01354551e-02, 1.07264854e-01, 4.26168516e-02, 9.43970308e-02,
          1.32277101e-01, 1.55733660e-01, 1.97480053e-01, 1.71168253e-01,
          2.24806309e-01, 1.23597205e-01, 1.18924491e-01, 8.39975998e-02,
          6.19048849e-02, 8.40587094e-02, 7.64175951e-02, 6.41110390e-02,
          1.09047122e-01, 5.89479096e-02, 8.03678632e-02, 0.,
          1.53671637e-01, 1.12546988e-01, 1.36428088e-01, 1.09079987e-01,
          2.22437263e-01, 1.36835918e-01, 1.54381335e-01, 1.83053449e-01,
          1.41968047e-02, 1.46991059e-01, 6.24214783e-02, 1.70489430e-01 ]
      - [ 1.03649415e-01, 1.35347426e-01, 1.39638871e-01, 1.10947467e-01,
          8.44225287e-02, 1.01822339e-01, 6.89208582e-02, 7.89004192e-03,
          7.63449818e-02, 8.15270562e-03, 1.27307609e-01, 6.22598678e-02,
          1.36010587e-01, 1.24005668e-01, 1.09965913e-01, 1.17562592e-01,
          1.76640943e-01, 1.47469968e-01, 1.06883086e-01, 7.36279646e-03,
          5.49036972e-02, 6.85256422e-02, 4.14372496e-02, 2.08886892e-01,
          1.84370637e-01, 8.09853077e-02, 0., 8.40684772e-03,
          1.23938257e-02, 6.11587428e-02, 4.95171621e-02, 1.83227643e-01,
          1.29874751e-01, 1.42723545e-01, 1.52536839e-01, 1.47136182e-01,
          1.95616290e-01, 8.36330280e-02, 1.94290683e-01, 9.92497727e-02,
          1.62645012e-01, 1.56859949e-01, 9.67061818e-02, 0.,
          1.22421198e-01, 1.21653460e-01, 8.97435918e-02, 8.84373933e-02,
          1.61110803e-01, 1.39342308e-01, 9.55226645e-02, 0.,
          2.21477389e-01, 1.20955206e-01, 1.28393620e-01, 7.10772201e-02,
          1.14680097e-01, 1.76969126e-01, 1.61534816e-01, 1.44012123e-01,
          1.93489999e-01, 1.60553530e-01, 1.52990609e-01, 1.85196951e-01 ]
      - [ 1.90453216e-01, 1.55156255e-01, 1.75109014e-01, 1.93810031e-01,
          1.01926528e-01, 5.92151619e-02, 6.51911972e-03, 0.,
          5.48986308e-02, 5.24199791e-02, 8.21416304e-02, 1.21580929e-01,
          1.84041992e-01, 1.79869935e-01, 1.74229607e-01, 1.50342003e-01,
          2.45268151e-01, 1.61680490e-01, 1.08967841e-01, 7.97332451e-02,
          6.25913814e-02, 7.79616237e-02, 6.44112825e-02, 1.84376612e-01,
          8.86014104e-02, 9.62689593e-02, 1.23105302e-01, 4.87417867e-03,
          7.63661563e-02, 1.51424780e-01, 1.74164236e-01, 2.34478638e-01,
          3.87629191e-03, 0., 0., 7.97397345e-02, 1.38173416e-01,
          1.59280375e-01, 1.55372530e-01, 1.39263988e-01, 2.22778171e-01,
          1.49362549e-01, 1.37799263e-01, 7.28567913e-02, 6.78444207e-02,
          5.11607006e-02, 0., 0., 5.82223684e-02, 0., 5.91787025e-02,
          3.69360931e-02, 1.71641588e-01, 1.48976907e-01, 1.47674456e-01,
          1.09102800e-01, 1.44327730e-01, 2.06582010e-01, 1.82177275e-01,
          1.30867645e-01, 7.33545469e-03, 8.15638080e-02, 0., 0. ]
      - [ 1.41188070e-01, 2.42060319e-01, 1.16133861e-01, 1.50179520e-01,
          8.12679529e-02, 1.16537564e-01, 5.65094016e-02, 0.,
          8.07701126e-02, 5.98806776e-02, 1.07693985e-01, 7.70898685e-02,
          9.87611189e-02, 1.76670074e-01, 1.82069570e-01, 1.39914855e-01,
          2.10729644e-01, 9.16100219e-02, 9.33024287e-02, 1.09109856e-01,
          1.46704875e-02, 6.24703839e-02, 6.00509234e-02, 1.09496921e-01,
          1.17024742e-01, 1.26867115e-01, 1.11264154e-01, 0.,
          1.88905373e-01, 8.64403471e-02, 1.05598122e-01, 1.84149995e-01,
          9.01354551e-02, 1.07264854e-01, 4.26168516e-02, 9.43970308e-02,
          1.32277101e-01, 1.55733660e-01, 1.97480053e-01, 1.71168253e-01,
          2.24806309e-01, 1.23597205e-01, 1.18924491e-01, 8.39975998e-02,
          6.19048849e-02, 8.40587094e-02, 7.64175951e-02, 6.41110390e-02,
          1.09047122e-01, 5.89479096e-02, 8.03678632e-02, 0.,
          1.53671637e-01, 1.12546988e-01, 1.36428088e-01, 1.09079987e-01,
          2.22437263e-01, 1.36835918e-01, 1.54381335e-01, 1.83053449e-01,
          1.41968047e-02, 1.46991059e-01, 6.24214783e-02, 1.70489430e-01 ]
      - [ 1.72866657e-01, 1.61124602e-01, 1.28201336e-01, 5.60304429e-03,
          5.65467812e-02, 1.38602972e-01, 9.42672193e-02, 2.16956865e-02,
          9.69934464e-02, 4.50652987e-02, 2.41545960e-02, 1.21725224e-01,
          2.89367773e-02, 1.17357038e-01, 2.13150099e-01, 1.33906767e-01,
          1.69917226e-01, 1.56758085e-01, 9.92234796e-02, 4.97331060e-02,
          9.01273564e-02, 0., 4.16426994e-02, 5.02044447e-02,
          8.59550387e-03, 0., 6.08560815e-02, 1.51015326e-01,
          1.67584777e-01, 1.71689317e-01, 9.44966227e-02, 1.68386802e-01,
          1.36827141e-01, 0., 0., 0., 0., 2.18401048e-02, 1.71664834e-01,
          3.41356188e-01, 2.05661759e-01, 1.50934055e-01, 0.,
          1.99371297e-02, 0., 0., 8.98572877e-02, 2.93344498e-01,
          9.64550599e-02, 0., 0., 0., 7.52538443e-02, 1.34186491e-01,
          1.68754414e-01, 2.05841511e-01, 2.05692887e-01, 1.64188012e-01,
          1.42064035e-01, 1.44496158e-01, 6.45158291e-02, 5.32873459e-02,
          1.23713955e-01, 1.74044117e-01 ]
      - [ 1.78432524e-01, 1.76643312e-01, 2.16074675e-01, 1.26184061e-01,
          1.03230871e-01, 9.20438766e-02, 1.46139368e-01, 1.33796409e-01,
          1.21882603e-01, 1.48082823e-01, 8.54749233e-02, 1.15994237e-01,
          8.25225115e-02, 1.78943351e-01, 1.98665649e-01, 1.75377682e-01,
          2.76387960e-01, 1.31603420e-01, 1.01217464e-01, 7.53128156e-02,
          1.78890750e-01, 1.74947709e-01, 1.28659561e-01, 0.,
          1.61844045e-01, 1.66439295e-01, 1.48593247e-01, 1.90014541e-01,
          1.53199971e-01, 1.60374880e-01, 1.86132818e-01, 1.93322003e-01,
          1.04813278e-02, 6.23223465e-03, 6.39857398e-03, 9.31936409e-03,
          6.05139742e-03, 1.58648379e-02, 1.51706353e-01, 1.66516274e-01,
          1.54980779e-01, 1.32321075e-01, 7.57463872e-02, 7.60922907e-03,
          1.11117037e-02, 6.39857398e-03, 8.81371088e-03, 0.,
          6.05139742e-03, 7.34088989e-03, 7.30626518e-03, 0.,
          1.17814802e-01, 1.17337681e-01, 1.53610855e-01, 1.22554384e-01,
          1.01339862e-01, 9.94220898e-02, 1.45568892e-01, 1.43119231e-01,
          6.87458320e-03, 0., 6.23223512e-03, 9.31936409e-03 ]
      - [ 2.00774267e-01, 1.66199848e-01, 1.59471408e-01, 1.43489301e-01,
          1.27687290e-01, 5.45083657e-02, 3.06495489e-03, 4.64632213e-02,
          6.26642704e-02, 5.30865788e-03, 4.82606813e-02, 7.13746175e-02,
          1.92974940e-01, 1.74135089e-01, 1.61027893e-01, 1.11093834e-01,
          1.14073455e-01, 9.62329134e-02, 1.02923788e-01, 1.50515124e-01,
          7.16642886e-02, 8.35134760e-02, 7.40280449e-02, 4.10336591e-02,
          8.15016869e-03, 1.01266854e-01, 1.33211836e-01, 1.02056563e-01,
          1.93443090e-01, 1.71110228e-01, 1.66719928e-01, 2.57993847e-01,
          6.32784814e-02, 5.89026250e-02, 5.27859069e-02, 3.14348899e-02,
          8.19194987e-02, 1.04192607e-01, 2.05297470e-01, 2.35855207e-01,
          2.08967313e-01, 1.09473646e-01, 8.12288001e-02, 1.05593272e-01,
          1.26261869e-02, 0., 5.30865788e-03, 1.62712991e-01,
          5.80203049e-02, 2.69299578e-02, 0., 0., 1.44633889e-01,
          1.55325398e-01, 1.47564858e-01, 1.49463862e-01, 1.69740900e-01,
          1.78659305e-01, 1.75436333e-01, 1.90947086e-01, 3.65605764e-02,
          4.04342040e-02, 5.30268215e-02, 1.39283463e-01 ]
      - [ 1.03649415e-01, 1.35347426e-01, 1.39638871e-01, 1.10947467e-01,
          8.44225287e-02, 1.01822339e-01, 6.89208582e-02, 7.89004192e-03,
          7.63449818e-02, 8.15270562e-03, 1.27307609e-01, 6.22598678e-02,
          1.36010587e-01, 1.24005668e-01, 1.09965913e-01, 1.17562592e-01,
          1.76640943e-01, 1.47469968e-01, 1.06883086e-01, 7.36279646e-03,
          5.49036972e-02, 6.85256422e-02, 4.14372496e-02, 2.08886892e-01,
          1.84370637e-01, 8.09853077e-02, 0., 8.40684772e-03,
          1.23938257e-02, 6.11587428e-02, 4.95171621e-02, 1.83227643e-01,
          1.29874751e-01, 1.42723545e-01, 1.52536839e-01, 1.47136182e-01,
          1.95616290e-01, 8.36330280e-02, 1.94290683e-01, 9.92497727e-02,
          1.62645012e-01, 1.56859949e-01, 9.67061818e-02, 0.,
          1.22421198e-01, 1.21653460e-01, 8.97435918e-02, 8.84373933e-02,
          1.61110803e-01, 1.39342308e-01, 9.55226645e-02, 0.,
          2.21477389e-01, 1.20955206e-01, 1.28393620e-01, 7.10772201e-02,
          1.14680097e-01, 1.76969126e-01, 1.61534816e-01, 1.44012123e-01,
          1.93489999e-01, 1.60553530e-01, 1.52990609e-01, 1.85196951e-01 ]
      - [ 2.24892512e-01, 1.14362165e-01, 2.18157694e-01, 1.38692141e-01,
          1.09787017e-01, 5.97837102e-03, 3.72431427e-02, 0.,
          6.25247359e-02, 4.75442316e-03, 5.87681867e-02, 1.21763639e-01,
          1.19231693e-01, 2.11532965e-01, 1.81853563e-01, 7.11356178e-02,
          2.04458594e-01, 1.36383235e-01, 0., 1.31941274e-01,
          3.98970358e-02, 1.11805104e-01, 1.25055835e-01, 7.59247094e-02,
          1.09962538e-01, 1.55702606e-01, 9.92636159e-02, 1.13195054e-01,
          9.16348323e-02, 1.14842191e-01, 1.26947045e-01, 2.43192732e-01,
          0., 0., 0., 3.68799232e-02, 1.51593849e-01, 1.20484471e-01,
          1.46308094e-01, 2.30029166e-01, 1.96205497e-01, 1.10807501e-01,
          1.18212417e-01, 4.86212932e-02, 7.44733512e-02, 0., 0., 0.,
          9.00211111e-02, 8.19571987e-02, 9.99106765e-02, 0.,
          2.04877704e-01, 1.56800404e-01, 1.19250789e-01, 1.17979147e-01,
          1.80188909e-01, 1.35417789e-01, 2.13554025e-01, 1.41794056e-01,
          1.01137839e-01, 1.07187957e-01, 1.24058090e-01, 9.28218439e-02 ]
      - [ 1.51866317e-01, 1.52309313e-01, 1.87361360e-01, 1.62171513e-01,
          1.53788596e-01, 8.50489959e-02, 3.52781527e-02, 5.94753660e-02,
          7.52134770e-02, 4.12918441e-02, 9.70070288e-02, 1.56569943e-01,
          2.14834854e-01, 1.47713050e-01, 1.15725733e-01, 1.30339578e-01,
          1.67950794e-01, 7.72396550e-02, 1.56263530e-01, 1.71697244e-01,
          5.88657856e-02, 8.96661207e-02, 0., 2.93924585e-02,
          1.49641976e-01, 9.21462104e-02, 1.28220737e-01, 8.13828409e-02,
          2.21881777e-01, 1.45825088e-01, 1.07860498e-01, 2.48072833e-01,
          4.66301255e-02, 3.18893306e-02, 5.23605049e-02, 6.66224062e-02,
          1.37104452e-01, 1.18889630e-01, 1.30993441e-01, 1.98710635e-01,
          1.89682975e-01, 1.50272265e-01, 1.09210059e-01, 8.98370519e-02,
          5.15355580e-02, 4.85739782e-02, 6.91789910e-02, 5.36592938e-02,
          9.38438028e-02, 0., 3.97491939e-02, 2.84038205e-02,
          2.11804301e-01, 1.36071607e-01, 1.08227417e-01, 8.23980719e-02,
          1.78011060e-01, 1.85761645e-01, 1.69057310e-01, 1.49453029e-01,
          3.32088247e-02, 7.81959742e-02, 8.81174654e-02, 5.11278063e-02 ]
      - [ 1.65857613e-01, 1.59334868e-01, 2.26475045e-01, 1.21268466e-01,
          1.07928611e-01, 4.85544465e-02, 5.92416478e-03, 0.,
          6.54082447e-02, 4.71131457e-03, 6.96111172e-02, 8.15107524e-02,
          1.23164997e-01, 2.22981587e-01, 1.75223097e-01, 1.06460549e-01,
          2.14981809e-01, 1.19394302e-01, 1.01051360e-01, 1.10321067e-01,
          9.16221067e-02, 1.33270189e-01, 7.21896589e-02, 7.03759640e-02,
          1.48271620e-01, 1.28175318e-01, 1.16706744e-01, 1.27827540e-01,
          8.29297304e-02, 1.43470585e-01, 1.08524039e-01, 2.40895957e-01,
          0., 0., 0., 0., 1.52572244e-01, 1.34372547e-01, 1.65910989e-01,
          2.40189314e-01, 1.69567779e-01, 1.03778705e-01, 6.27170727e-02,
          9.62069556e-02, 3.69635150e-02, 5.49475402e-02, 0., 0.,
          7.86380470e-02, 9.75613222e-02, 6.27777725e-02, 6.42680451e-02,
          1.71890661e-01, 1.89217478e-01, 1.17239535e-01, 8.61142203e-02,
          1.56214476e-01, 1.95018709e-01, 1.63793132e-01, 1.72482416e-01,
          1.03915744e-01, 1.12264469e-01, 1.24381796e-01, 8.78103152e-02 ]
      - [ 1.95707023e-01, 1.42270118e-01, 2.03718215e-01, 1.41167849e-01,
          1.71434537e-01, 0., 0., 0., 6.28150627e-02, 0., 1.37128964e-01,
          7.40924105e-02, 1.96010709e-01, 2.04012051e-01, 1.34946004e-01,
          9.18115899e-02, 1.69841439e-01, 1.44905671e-01, 1.17567070e-01,
          1.19751923e-01, 1.01898685e-01, 0., 1.30288169e-01,
          8.05959478e-02, 8.40230882e-02, 1.37155339e-01, 1.42756343e-01,
          6.48164982e-03, 1.49943113e-01, 1.54951364e-01, 1.06814884e-01,
          2.65160233e-01, 0., 4.92478013e-02, 5.18313162e-02,
          5.80216423e-02, 1.33049205e-01, 1.12749182e-01, 1.48220405e-01,
          1.80594221e-01, 2.23820224e-01, 1.16480999e-01, 1.09196492e-01,
          7.75983930e-02, 3.47842909e-02, 7.71832690e-02, 0.,
          4.33955602e-02, 1.07544817e-01, 0., 7.17296824e-02,
          8.11039507e-02, 1.42501086e-01, 1.68686435e-01, 1.56296611e-01,
          8.78069997e-02, 1.91056266e-01, 1.61445484e-01, 1.61462769e-01,
          1.71991020e-01, 2.37626620e-02, 4.70466502e-02, 1.06501572e-01,
          9.32134986e-02 ]
      - [ 1.63204655e-01, 1.95377380e-01, 1.92318961e-01, 1.70224443e-01,
          1.04832456e-01, 8.54654387e-02, 5.84252812e-02, 0.,
          7.82860294e-02, 7.57376328e-02, 7.77277350e-02, 1.12892039e-01,
          1.68563083e-01, 2.12536454e-01, 1.56696573e-01, 1.06607839e-01,
          2.17814565e-01, 1.16766609e-01, 1.81832805e-01, 6.66705519e-02,
          2.60234587e-02, 1.01203971e-01, 6.91460595e-02, 1.07723162e-01,
          1.19683266e-01, 7.66019076e-02, 9.96235088e-02, 1.03700787e-01,
          1.58962384e-01, 1.20399110e-01, 1.65896952e-01, 2.26473540e-01,
          3.36970761e-02, 4.54639643e-02, 5.98709583e-02, 6.95126504e-02,
          1.05601214e-01, 1.61036864e-01, 1.17003731e-01, 1.96141794e-01,
          2.28158310e-01, 7.20527098e-02, 1.15297362e-01, 1.31049320e-01,
          7.57168159e-02, 5.37805930e-02, 0., 0., 2.58191805e-02,
          7.39097875e-03, 0., 0., 1.72420397e-01, 1.89913541e-01,
          1.26223236e-01, 1.38877481e-01, 1.38226569e-01, 1.59701243e-01,
          1.79727644e-01, 1.89413652e-01, 1.01462476e-01, 0., 0., 0. ]
      - [ 2.07197607e-01, 1.20185189e-01, 1.61567599e-01, 2.09294215e-01,
          1.21417038e-01, 0., 7.06414739e-03, 3.45123932e-02,
          7.16581568e-03, 4.34647910e-02, 6.18653558e-03, 1.21844843e-01,
          1.47481188e-01, 1.29527375e-01, 1.91084638e-01, 2.01096922e-01,
          2.35955819e-01, 1.41968280e-01, 7.18899816e-02, 1.19586259e-01,
          9.25102830e-03, 8.18912983e-02, 1.25013426e-01, 1.06628895e-01,
          1.28299981e-01, 9.83994082e-03, 1.29812330e-01, 9.77773443e-02,
          1.22948080e-01, 0., 1.85510039e-01, 2.92043149e-01,
          1.02437325e-02, 6.18653558e-03, 0., 0., 5.20223519e-03,
          2.21674368e-01, 1.32177174e-01, 2.70029485e-01, 1.70228332e-01,
          9.51446816e-02, 9.57469717e-02, 0., 5.20223519e-03, 0., 0.,
          5.20223519e-03, 7.30772689e-02, 6.69243336e-02, 0., 0.,
          4.13718587e-03, 1.47435084e-01, 1.73295960e-01, 1.76635087e-01,
          1.33777589e-01, 2.81035513e-01, 1.37204304e-01, 0., 0., 0.,
          1.19732544e-01, 8.80774260e-02 ]
      - [ 1.96193725e-01, 1.32318094e-01, 1.78562090e-01, 1.57861933e-01,
          1.23195117e-02, 6.80703064e-03, 7.49601517e-03, 5.95586374e-02,
          9.39139817e-03, 4.74089617e-03, 9.37191844e-02, 9.40424800e-02,
          2.04734713e-01, 1.72979653e-01, 1.47290915e-01, 1.25507832e-01,
          1.89586386e-01, 1.18082194e-02, 7.60972425e-02, 1.53058201e-01,
          1.31143048e-01, 8.69705826e-02, 6.70463964e-03, 9.85330716e-03,
          1.16781872e-02, 8.12682882e-02, 1.80646703e-01, 9.91076976e-02,
          1.42659828e-01, 1.31755337e-01, 1.16686545e-01, 2.31775597e-01,
          9.46669579e-02, 8.56063738e-02, 8.66597146e-02, 0., 0.,
          9.07334685e-02, 1.60224408e-01, 2.55647004e-01, 2.28078529e-01,
          1.28747910e-01, 6.86861500e-02, 9.07092914e-02, 0.,
          1.07192323e-01, 8.07055160e-02, 7.70755336e-02, 8.43979865e-02,
          1.01911590e-01, 0., 9.28790644e-02, 1.51349664e-01,
          1.71278417e-01, 1.49216101e-01, 1.17147811e-01, 1.71561614e-01,
          1.68324992e-01, 2.06381842e-01, 1.43232271e-01, 1.00434601e-01,
          1.23404145e-01, 1.24841355e-01, 8.50420743e-02 ]
      - [ 1.51291609e-01, 1.57688707e-01, 9.07696486e-02, 8.16817284e-02,
          9.86921266e-02, 8.79313797e-02, 1.24067165e-01, 2.02370480e-01,
          1.61296651e-01, 8.42170343e-02, 1.00277893e-01, 1.02117054e-01,
          9.30280462e-02, 1.41513988e-01, 9.71807986e-02, 1.87424630e-01,
          2.14479208e-01, 5.00893183e-02, 1.07539274e-01, 7.38184303e-02,
          7.52122402e-02, 0., 6.47127554e-02, 1.29687637e-01,
          1.36834726e-01, 1.36792287e-01, 1.03949681e-01, 8.20395947e-02,
          1.37394279e-01, 1.26636848e-01, 1.33253008e-01, 1.68794572e-01,
          1.58050045e-01, 1.25398427e-01, 1.19987607e-01, 7.24303201e-02,
          9.37741697e-02, 9.00238678e-02, 1.10083811e-01, 1.66018263e-01,
          2.06616491e-01, 1.54726744e-01, 1.01547636e-01, 1.09297559e-01,
          1.93755087e-02, 1.16696291e-01, 1.76927894e-01, 0.,
          7.34275803e-02, 6.18030764e-02, 1.40198708e-01, 4.23745364e-02,
          1.48606151e-01, 1.36783585e-01, 1.16748407e-01, 8.37831050e-02,
          1.82709947e-01, 1.49428248e-01, 1.72978312e-01, 1.70200929e-01,
          5.69463894e-02, 1.11918055e-01, 1.46495685e-01, 1.15325332e-01 ]
      - [ 1.45857379e-01, 1.86723247e-01, 1.66184202e-01, 1.00046165e-01,
          7.06059858e-02, 1.22089952e-01, 9.84280109e-02, 6.58084601e-02,
          1.21310540e-01, 6.45282120e-02, 1.05637275e-01, 0.,
          1.49170414e-01, 1.01091668e-01, 9.63780805e-02, 1.45744279e-01,
          1.80625021e-01, 1.17026597e-01, 1.31181940e-01, 0.,
          1.00621827e-01, 1.61577359e-01, 0., 9.53206271e-02,
          1.51593328e-01, 1.30679518e-01, 1.40304685e-01, 1.56536669e-01,
          1.11126192e-02, 1.37289628e-01, 1.43201336e-01, 1.73030987e-01,
          2.23416731e-01, 1.08078800e-01, 9.40095335e-02, 0., 0.,
          7.93595091e-02, 6.98552206e-02, 2.83526897e-01, 2.54796803e-01,
          9.17889029e-02, 0., 0., 0., 0., 0., 1.75187781e-01,
          1.70765236e-01, 0., 0., 0., 0., 0., 1.14894345e-01,
          2.47718617e-01, 2.23991215e-01, 1.23587579e-01, 3.46239582e-02,
          0., 0., 8.44315216e-02, 1.33934185e-01, 2.35150963e-01 ]
      - [ 1.41099855e-01, 1.72868118e-01, 1.72727272e-01, 1.17322937e-01,
          6.44297823e-02, 7.61496648e-02, 0., 0., 7.67523944e-02,
          4.94218022e-02, 8.35440829e-02, 1.17298715e-01, 7.92925805e-02,
          1.17800362e-01, 1.98269039e-01, 1.16508119e-01, 1.95726991e-01,
          2.37356313e-02, 0., 9.79640260e-02, 1.21278413e-01,
          7.82924816e-02, 6.61384314e-02, 8.51610154e-02, 6.59668669e-02,
          1.10945195e-01, 8.18633288e-02, 1.33065641e-01, 9.35157686e-02,
          1.03293590e-01, 8.76644552e-02, 2.26606846e-01, 9.84513462e-02,
          8.59546065e-02, 1.04484968e-01, 5.73118068e-02, 1.33189186e-01,
          1.14068694e-01, 1.27424166e-01, 2.98914552e-01, 1.34228721e-01,
          9.30150002e-02, 8.07935670e-02, 1.17073610e-01, 5.05137630e-02,
          1.05276540e-01, 9.98808444e-02, 9.74005982e-02, 1.43953145e-01,
          7.35288113e-02, 9.72933620e-02, 7.43529648e-02, 2.11394966e-01,
          1.48592427e-01, 1.60527870e-01, 1.27247170e-01, 1.61821142e-01,
          1.79632664e-01, 1.68222472e-01, 2.36519814e-01, 6.11733869e-02,
          1.20096840e-01, 1.42633751e-01, 1.24121532e-01 ]
      - [ 1.67413443e-01, 1.23225965e-01, 1.59497216e-01, 1.73071057e-01,
          7.81534463e-02, 9.93922502e-02, 5.83730042e-02, 5.15264235e-02,
          8.92122760e-02, 0., 8.02921206e-02, 1.17634863e-01,
          1.66331694e-01, 1.58531308e-01, 9.24976617e-02, 2.21023664e-01,
          1.87871590e-01, 1.21528335e-01, 8.00789744e-02, 1.35932326e-01,
          1.34858668e-01, 1.17730111e-01, 6.95552975e-02, 0.,
          8.23256001e-02, 8.84708464e-02, 1.37402281e-01, 1.25963539e-01,
          1.63973868e-01, 8.23587030e-02, 9.55015421e-02, 2.21268967e-01,
          1.08610809e-01, 9.80087891e-02, 2.85422672e-02, 4.80117882e-03,
          9.87399518e-02, 8.35414231e-02, 1.78056747e-01, 1.99313998e-01,
          2.39648551e-01, 7.72503018e-02, 1.22224063e-01, 6.09664945e-03,
          7.63647398e-03, 8.48771781e-02, 9.51706544e-02, 4.65325527e-02,
          4.28596027e-02, 6.34087399e-02, 1.15558058e-01, 7.43919984e-02,
          1.47909492e-01, 1.61545739e-01, 1.64386526e-01, 1.09707072e-01,
          1.39826983e-01, 1.77991018e-01, 1.73046708e-01, 1.97565913e-01,
          6.73752800e-02, 1.15028702e-01, 1.47144526e-01, 9.63586867e-02 ]
      - [ 2.14164212e-01, 1.74516052e-01, 1.55951783e-01, 1.29369229e-01,
          1.31895706e-01, 0., 6.58542141e-02, 0., 5.13010360e-02,
          1.01348264e-02, 0., 1.33650452e-01, 1.49725705e-01,
          1.63707733e-01, 1.66649416e-01, 1.10761195e-01, 2.47856483e-01,
          7.48685794e-03, 4.62159142e-02, 7.08516091e-02, 9.82754678e-02,
          1.06841497e-01, 4.73510474e-03, 0., 2.94108279e-02,
          9.40207914e-02, 1.69685140e-01, 1.01598576e-01, 1.85050845e-01,
          4.60310541e-02, 1.24068953e-01, 1.81118339e-01, 1.39907405e-01,
          6.12264611e-02, 0., 5.00676362e-03, 3.98173276e-03,
          1.30248722e-02, 4.34382781e-02, 3.35592598e-01, 1.62045240e-01,
          1.43051550e-01, 8.56032744e-02, 4.52329591e-02, 7.08063273e-03,
          1.83593258e-02, 1.22629866e-01, 3.98734510e-02, 1.02056928e-01,
          7.59674460e-02, 7.05578476e-02, 6.18824959e-02, 1.27315566e-01,
          1.39831230e-01, 1.59769163e-01, 1.64780051e-01, 1.99093908e-01,
          1.37098059e-01, 1.82958856e-01, 2.03146279e-01, 9.22552124e-02,
          1.46385804e-01, 1.92893595e-01, 5.47548980e-02 ]
      - [ 2.30400771e-01, 1.84925035e-01, 1.36615247e-01, 1.29594266e-01,
          7.70076290e-02, 9.12876502e-02, 8.49523321e-02, 6.99523464e-02,
          8.74318555e-02, 0., 8.25454742e-02, 1.42808467e-01,
          1.08763650e-01, 2.49165043e-01, 1.20387800e-01, 1.37290448e-01,
          2.24030629e-01, 1.55971125e-01, 1.23285174e-01, 0.,
          7.60276988e-03, 5.82850724e-02, 5.87436631e-02, 7.82984272e-02,
          1.61610365e-01, 1.64876238e-01, 9.66557935e-02, 2.13687364e-02,
          1.39532849e-01, 1.50356710e-01, 1.64520532e-01, 2.56760418e-01,
          4.01601382e-02, 4.09193300e-02, 4.13531661e-02, 0.,
          8.57053474e-02, 1.17781430e-01, 1.69573620e-01, 1.50050804e-01,
          2.63850898e-01, 7.05699250e-02, 1.39951080e-01, 9.36810002e-02,
          0., 7.36037940e-02, 0., 0., 6.58419169e-03, 0., 0., 0.,
          1.55821875e-01, 1.90026149e-01, 1.57967493e-01, 3.30075584e-02,
          1.62122235e-01, 2.12515533e-01, 1.39162391e-01, 2.05855608e-01,
          4.82363291e-02, 0., 0., 0. ]
      - [ 1.66223869e-01, 1.39564082e-01, 1.84920982e-01, 1.94284514e-01,
          6.22414574e-02, 7.00639635e-02, 5.68544352e-03, 6.07085926e-03,
          5.84087409e-02, 4.52146633e-03, 4.95731235e-02, 1.03957839e-01,
          1.93998963e-01, 1.56233132e-01, 1.96381524e-01, 1.69551581e-01,
          2.49009714e-01, 1.58245653e-01, 1.06040858e-01, 9.48538929e-02,
          1.63876414e-01, 6.16151728e-02, 9.51254070e-02, 0.,
          9.41273198e-02, 8.16438124e-02, 1.70897767e-01, 1.18937343e-01,
          1.27006978e-01, 1.29497513e-01, 1.29001901e-01, 2.05164418e-01,
          2.41088048e-02, 5.53764310e-03, 1.82410013e-02, 0.,
          6.45776168e-02, 1.62370548e-01, 2.20492780e-01, 1.21543422e-01,
          2.30312958e-01, 8.68145004e-02, 1.36721820e-01, 8.10183659e-02,
          0., 1.72223486e-02, 4.52146633e-03, 2.59399582e-02,
          1.04878284e-01, 0., 4.51549217e-02, 0., 1.37628883e-01,
          2.15725780e-01, 1.24622174e-01, 1.39458656e-01, 1.99140847e-01,
          1.11515358e-01, 2.15115011e-01, 1.22850306e-01, 0.,
          4.49653454e-02, 1.08660884e-01, 7.78322294e-02 ]
      - [ 9.96351764e-02, 1.15011312e-01, 1.82622269e-01, 1.64749250e-01,
          1.13390729e-01, 7.17224553e-03, 0., 6.70700660e-03,
          1.63391400e-02, 4.99525759e-03, 3.60910520e-02, 1.85903639e-01,
          1.05054677e-01, 1.07307881e-01, 1.51399970e-01, 1.30948037e-01,
          2.67892003e-01, 8.74747261e-02, 9.23040584e-02, 6.90484121e-02,
          8.82375836e-02, 8.53999257e-02, 3.53218056e-03, 8.54674354e-02,
          7.41457045e-02, 1.22510590e-01, 6.72269985e-02, 7.46965222e-03,
          7.97918290e-02, 1.01523604e-02, 1.07623830e-01, 1.60256743e-01,
          1.62021041e-01, 7.15481415e-02, 1.29881382e-01, 1.51749566e-01,
          1.54486343e-01, 1.17894664e-01, 1.96026802e-01, 1.95624292e-01,
          2.26472318e-01, 1.38395131e-01, 2.42263637e-02, 0., 0.,
          1.18360534e-01, 1.23979084e-01, 9.17482749e-02, 1.62697583e-01,
          4.91754375e-02, 1.14983961e-01, 9.93416905e-02, 1.60376281e-02,
          1.53767437e-01, 1.77507773e-01, 1.44148037e-01, 2.61419266e-01,
          1.71003371e-01, 1.81251347e-01, 0., 1.54371858e-01,
          1.16519965e-01, 1.34484202e-01, 1.09785646e-01 ]
      - [ 1.92963630e-01, 2.22405240e-01, 1.18760541e-01, 1.28278598e-01,
          5.73361032e-02, 0., 6.74012164e-03, 1.53015340e-02,
          5.47861345e-02, 9.59847793e-02, 0., 6.71770722e-02,
          1.31185278e-01, 1.38270214e-01, 1.90820187e-01, 1.93276152e-01,
          2.05188990e-01, 1.52924210e-01, 1.18735544e-01, 1.92113027e-01,
          1.23748079e-01, 1.11431204e-01, 5.83711686e-03, 5.03941625e-03,
          6.09117746e-02, 7.93832988e-02, 1.25015736e-01, 1.65729344e-01,
          1.63207665e-01, 1.53620690e-01, 1.33022159e-01, 2.76611060e-01,
          0., 4.76598553e-03, 0., 0., 4.00770037e-03, 1.41863329e-02,
          6.12741150e-02, 2.94951677e-01, 2.07334638e-01, 1.38171732e-01,
          1.39156565e-01, 0., 0., 0., 0., 0., 9.46796499e-03, 0.,
          5.99290989e-03, 0., 1.65941045e-01, 2.17368394e-01,
          1.76185802e-01, 5.15098535e-02, 1.94788873e-01, 1.76845774e-01,
          2.01169759e-01, 1.40670970e-01, 0., 0., 0., 0. ]
      - [ 8.60456750e-02, 1.19485483e-01, 1.41681239e-01, 1.59344137e-01,
          1.14626765e-01, 1.00401059e-01, 5.19921891e-02, 6.90296525e-03,
          3.14845927e-02, 6.68848455e-02, 7.04607293e-02, 1.18890129e-01,
          1.33060709e-01, 1.61798120e-01, 1.31570652e-01, 1.10321485e-01,
          1.99995473e-01, 1.54440835e-01, 6.71082363e-02, 8.77393130e-03,
          1.11191548e-01, 7.03688562e-02, 7.49827549e-02, 1.64638564e-01,
          1.25187442e-01, 1.55483663e-01, 4.34706174e-02, 4.61629126e-03,
          8.02486390e-02, 7.76364561e-03, 8.08975026e-02, 1.98870555e-01,
          1.22113898e-01, 1.49924055e-01, 1.73275441e-01, 8.24850574e-02,
          3.47365662e-02, 2.37501949e-01, 1.22693829e-01, 1.54813737e-01,
          2.39983112e-01, 6.26849011e-03, 1.24082593e-02, 1.80383306e-02,
          1.00440331e-01, 8.76446888e-02, 7.90692791e-02, 6.79192767e-02,
          1.58869430e-01, 1.56741768e-01, 0., 4.55086268e-02,
          1.51986033e-01, 1.09731570e-01, 1.36384144e-01, 1.48064405e-01,
          1.86406404e-01, 1.95322007e-01, 1.36024833e-01, 1.77377671e-01,
          9.92928296e-02, 1.64399087e-01, 1.94552854e-01, 1.15703508e-01 ]
      - [ 1.72660276e-01, 1.41278371e-01, 1.25816256e-01, 3.28690223e-02,
          7.28478804e-02, 7.41861537e-02, 1.07353285e-01, 9.83952209e-02,
          9.32204053e-02, 9.16490033e-02, 7.91497231e-02, 1.98615771e-02,
          6.53250739e-02, 1.24328166e-01, 1.46762356e-01, 1.50868133e-01,
          1.61186278e-01, 7.16433302e-02, 1.12448648e-01, 0.,
          1.27376363e-01, 6.87756911e-02, 1.12699151e-01, 5.69598749e-02,
          7.94615299e-02, 1.18881695e-01, 1.15301199e-01, 1.16179772e-01,
          1.03117153e-01, 1.52307197e-01, 1.33194283e-01, 2.20364809e-01,
          1.80709496e-01, 0., 0., 1.76512953e-02, 0., 0., 9.77516845e-02,
          3.00093830e-01, 2.68503875e-01, 4.75729369e-02, 7.43879378e-02,
          0., 0., 5.61777763e-02, 0., 2.70065248e-01, 1.57925934e-01,
          4.11134064e-02, 0., 0., 1.03468597e-01, 1.36879310e-01,
          7.00623021e-02, 2.06627011e-01, 2.69027382e-01, 1.19932167e-01,
          1.80073276e-01, 0., 3.99636514e-02, 2.89487522e-02,
          7.65891150e-02, 2.56463498e-01 ]
      - [ 1.81701630e-01, 1.20805569e-01, 1.70003176e-01, 1.52606890e-01,
          1.13385558e-01, 3.73391174e-02, 6.78964630e-02, 1.33208916e-01,
          6.69328123e-02, 6.23038113e-02, 6.30209744e-02, 1.18602723e-01,
          1.38781935e-01, 1.71045482e-01, 1.45963535e-01, 1.64126530e-01,
          2.13486671e-01, 1.02576151e-01, 0., 6.76843375e-02,
          5.17035499e-02, 0., 1.67296126e-01, 2.02627450e-01,
          1.62382886e-01, 1.13318928e-01, 7.15842992e-02, 4.95637432e-02,
          9.65741798e-02, 8.74298140e-02, 1.02437422e-01, 2.87785023e-01,
          3.68429646e-02, 8.54084790e-02, 5.09039760e-02, 2.11921949e-02,
          1.06896564e-01, 1.35487527e-01, 2.08405107e-01, 1.07657559e-01,
          2.13843673e-01, 6.68471605e-02, 1.20514803e-01, 9.91044641e-02,
          3.75430621e-02, 9.59246382e-02, 0., 4.38816510e-02,
          1.25220910e-01, 1.13907635e-01, 5.00606671e-02, 0.,
          1.88586131e-01, 1.41441986e-01, 1.50947958e-01, 1.14642359e-01,
          1.39734581e-01, 1.59310415e-01, 1.37721002e-01, 1.69134229e-01,
          6.96443021e-02, 1.71447232e-01, 1.16075724e-01, 6.72793388e-02 ]
      - [ 2.07197607e-01, 1.20185189e-01, 1.61567599e-01, 2.09294215e-01,
          1.21417038e-01, 0., 7.06414739e-03, 3.45123932e-02,
          7.16581568e-03, 4.34647910e-02, 6.18653558e-03, 1.21844843e-01,
          1.47481188e-01, 1.29527375e-01, 1.91084638e-01, 2.01096922e-01,
          2.35955819e-01, 1.41968280e-01, 7.18899816e-02, 1.19586259e-01,
          9.25102830e-03, 8.18912983e-02, 1.25013426e-01, 1.06628895e-01,
          1.28299981e-01, 9.83994082e-03, 1.29812330e-01, 9.77773443e-02,
          1.22948080e-01, 0., 1.85510039e-01, 2.92043149e-01,
          1.02437325e-02, 6.18653558e-03, 0., 0., 5.20223519e-03,
          2.21674368e-01, 1.32177174e-01, 2.70029485e-01, 1.70228332e-01,
          9.51446816e-02, 9.57469717e-02, 0., 5.20223519e-03, 0., 0.,
          5.20223519e-03, 7.30772689e-02, 6.69243336e-02, 0., 0.,
          4.13718587e-03, 1.47435084e-01, 1.73295960e-01, 1.76635087e-01,
          1.33777589e-01, 2.81035513e-01, 1.37204304e-01, 0., 0., 0.,
          1.19732544e-01, 8.80774260e-02 ]
      - [ 1.46209255e-01, 1.10877864e-01, 1.54542819e-01, 8.94267783e-02,
          5.13034649e-02, 8.19390547e-03, 3.79058234e-02, 0.,
          4.31524124e-03, 8.19390547e-03, 0., 0., 7.47421710e-03,
          1.83629647e-01, 1.25503689e-01, 1.11866184e-01, 2.22733200e-01,
          1.39128491e-01, 0., 0., 1.59397591e-02, 5.07858470e-02,
          6.98161870e-02, 0., 3.57274078e-02, 3.62867070e-03, 0.,
          7.59691596e-02, 1.01351410e-01, 1.04532667e-01, 1.16071038e-01,
          2.21324056e-01, 1.43606201e-01, 1.76751882e-01, 1.77614883e-01,
          1.69101715e-01, 1.47630731e-02, 5.57837375e-02, 2.61255410e-02,
          3.61504912e-01, 2.42396712e-01, 3.31255682e-02, 0.,
          1.42035931e-01, 1.23234056e-01, 1.28300652e-01, 1.35575786e-01,
          8.21061581e-02, 1.09577231e-01, 3.25836316e-02, 7.86551684e-02,
          5.13632894e-02, 1.43120363e-02, 6.80308938e-02, 1.80824429e-01,
          2.52699703e-01, 1.63813770e-01, 2.25076839e-01, 1.74606681e-01,
          1.80936158e-01, 6.51041046e-02, 1.44062519e-01, 1.63262710e-01,
          4.05393504e-02 ]
      - [ 1.72139004e-01, 1.73285812e-01, 2.35091448e-01, 2.51670092e-01,
          1.26358801e-02, 0., 1.18332254e-02, 7.49004167e-03,
          8.42392072e-03, 1.24645801e-02, 6.29834970e-03, 9.52748023e-03,
          1.23383394e-02, 1.56670973e-01, 1.49168134e-01, 2.03948289e-01,
          2.08927512e-01, 1.72027290e-01, 9.98940095e-02, 1.53523669e-01,
          9.28479806e-02, 1.04327373e-01, 5.35850637e-02, 4.45973873e-02,
          5.52184433e-02, 0., 6.62859753e-02, 9.29460302e-02,
          1.50905162e-01, 1.43404037e-01, 1.50865600e-01, 2.73089409e-01,
          3.95481028e-02, 1.09090609e-02, 0., 9.72238705e-02,
          1.56081021e-01, 2.00805202e-01, 2.02095196e-01, 2.77604282e-01,
          1.64796144e-01, 2.50471290e-02, 0., 0., 1.11437989e-02,
          6.29834970e-03, 1.29765980e-02, 7.49004167e-03, 1.69620514e-02,
          4.25574817e-02, 5.25398329e-02, 0., 5.10560609e-02,
          1.46811485e-01, 1.88331068e-01, 1.71809584e-01, 2.76028603e-01,
          1.73035428e-01, 1.20533951e-01, 5.29625919e-03, 1.49984574e-02,
          5.35055660e-02, 1.84191018e-02, 6.73773736e-02 ]
      - [ 1.67043105e-01, 1.90412164e-01, 1.45374015e-01, 8.87415782e-02,
          8.76647606e-02, 1.75477266e-01, 1.01255849e-01, 5.08342981e-02,
          1.21849634e-01, 1.36962935e-01, 6.61420301e-02, 8.59275907e-02,
          1.43713176e-01, 1.26224965e-01, 1.24427810e-01, 1.73632428e-01,
          1.49203047e-01, 1.59381375e-01, 1.07482545e-01, 9.37124044e-02,
          4.56443243e-02, 1.29498601e-01, 8.86671171e-02, 1.23011947e-01,
          1.25943303e-01, 1.33843213e-01, 6.52697533e-02, 4.96647321e-02,
          1.61778495e-01, 1.71217814e-01, 1.40948221e-01, 2.76421756e-01,
          9.14452001e-02, 9.04059783e-02, 1.03857234e-01, 1.06917165e-01,
          1.30836785e-01, 1.99575782e-01, 1.19794577e-01, 1.46103427e-01,
          1.44596264e-01, 1.45010769e-01, 1.01752289e-01, 1.03161559e-01,
          7.91449323e-02, 8.21659938e-02, 3.79024930e-02, 8.95976648e-02,
          5.10344282e-02, 6.66307611e-03, 0., 4.27696332e-02,
          1.77900791e-01, 1.78714961e-01, 1.06772184e-01, 7.09013194e-02,
          1.61601394e-01, 1.76067427e-01, 1.24317817e-01, 1.90278113e-01,
          1.15430102e-01, 4.30913456e-02, 2.28483658e-02, 6.50217477e-03 ]
      - [ 1.53627247e-01, 1.36396110e-01, 9.78780612e-02, 2.36201033e-01,
          7.63123035e-02, 0., 3.23196873e-02, 1.13046048e-02,
          1.68282893e-02, 1.04963239e-02, 5.38823567e-03, 8.13347772e-02,
          2.36662656e-01, 5.72724156e-02, 9.80976000e-02, 6.72792569e-02,
          1.96683943e-01, 6.09521717e-02, 0., 0., 8.82632099e-03,
          1.75482873e-02, 3.89229506e-02, 5.84679954e-02, 5.97567968e-02,
          1.09664481e-02, 1.09243326e-01, 1.32783189e-01, 7.49251544e-02,
          9.93413925e-02, 8.20214301e-02, 2.00396344e-01, 1.05497316e-01,
          1.75806969e-01, 1.15584329e-01, 7.06405118e-02, 7.29245991e-02,
          7.67112374e-02, 1.04115844e-01, 2.92136908e-01, 1.39556393e-01,
          7.83223137e-02, 8.54134485e-02, 1.07415594e-01, 1.41075090e-01,
          1.11182183e-01, 1.32586762e-01, 1.29905388e-01, 9.18380171e-02,
          8.72331783e-02, 1.03224218e-01, 1.02675766e-01, 2.48185590e-01,
          1.58724472e-01, 8.95661116e-02, 8.10816288e-02, 1.56094790e-01,
          1.83917165e-01, 1.75331697e-01, 2.26200774e-01, 2.17468202e-01,
          1.29594579e-01, 1.26412526e-01, 1.54519454e-01 ]
      - [ 1.88385621e-01, 1.78272098e-01, 1.42048821e-01, 1.09280922e-01,
          1.21910632e-01, 9.23676491e-02, 6.57081902e-02, 4.31561917e-02,
          7.31311962e-02, 6.93798736e-02, 8.40704590e-02, 7.15012625e-02,
          1.98575005e-01, 1.72467530e-01, 2.07427636e-01, 1.43289477e-01,
          2.30450884e-01, 1.35932148e-01, 8.50846246e-02, 9.17172059e-02,
          7.51290563e-03, 0., 1.03402324e-01, 1.54208884e-01,
          1.42488033e-01, 1.10429116e-01, 7.16678277e-02, 1.05653033e-01,
          1.45396650e-01, 1.57878965e-01, 1.68314651e-01, 2.56746799e-01,
          4.67944480e-02, 6.33763298e-02, 4.87616993e-02, 0.,
          9.90638658e-02, 1.13768578e-01, 1.97354168e-01, 1.44559011e-01,
          2.41773441e-01, 9.88089815e-02, 9.37707201e-02, 1.38322011e-01,
          0., 7.21214190e-02, 6.40589148e-02, 0., 1.59372799e-02, 0., 0.,
          0., 1.77302092e-01, 1.61924198e-01, 1.44301623e-01,
          1.29356489e-01, 1.19576231e-01, 1.65726393e-01, 1.61746785e-01,
          1.91712365e-01, 9.11126807e-02, 0., 0., 0. ]
      - [ 2.99456686e-01, 8.52216482e-02, 0., 5.45209758e-02,
          1.43580772e-02, 0., 9.43671912e-03, 6.43699542e-02,
          3.00189197e-01, 1.24382459e-01, 0., 0., 7.78676057e-03,
          5.33965006e-02, 9.19320881e-02, 1.23181120e-01, 2.51077712e-01,
          2.24211976e-01, 9.28313471e-03, 6.80936351e-02, 2.85042245e-02,
          0., 5.07195015e-03, 5.56032499e-03, 2.48332486e-01,
          9.51433778e-02, 9.43077654e-02, 7.01977834e-02, 1.01588003e-01,
          9.42678452e-02, 7.32362717e-02, 1.58139646e-01, 1.46939382e-01,
          1.10818312e-01, 2.05658451e-01, 7.42211938e-02, 7.99058080e-02,
          3.61512005e-02, 7.13677034e-02, 7.35083297e-02, 3.03852469e-01,
          7.71419257e-02, 4.01509963e-02, 0., 4.04611975e-02,
          1.91124648e-01, 1.74038589e-01, 6.00410178e-02, 1.48941144e-01,
          8.53488445e-02, 9.01934411e-03, 7.46234879e-02, 1.47580013e-01,
          4.23202477e-02, 1.08766824e-01, 1.93723008e-01, 1.83072716e-01,
          1.52830869e-01, 1.71956837e-01, 1.10744745e-01, 6.78385049e-02,
          1.51587605e-01, 6.60055950e-02, 0. ]
      - [ 3.06481898e-01, 7.52096027e-02, 3.31843793e-02, 6.55853888e-03,
          1.94205008e-02, 0., 4.14798409e-03, 7.29160756e-02,
          2.97090203e-01, 1.53882295e-01, 0., 2.79670041e-02, 0., 0.,
          8.44665170e-02, 1.26596004e-01, 3.24816018e-01, 1.42267361e-01,
          8.82922336e-02, 6.11112490e-02, 4.11232077e-02, 0., 0., 0.,
          2.89840788e-01, 1.10984044e-02, 8.43036175e-03, 1.08420365e-01,
          6.62642792e-02, 8.87656733e-02, 7.83782750e-02, 7.73576051e-02,
          9.89671946e-02, 1.26315251e-01, 1.54603362e-01, 2.04255924e-01,
          9.44222212e-02, 7.89258033e-02, 6.71220496e-02, 9.87356529e-02,
          2.76889175e-01, 2.81462837e-02, 0., 7.08906120e-03,
          4.12090831e-02, 1.25224605e-01, 1.96891963e-01, 1.07918307e-01,
          7.93094411e-02, 1.05686985e-01, 5.45339473e-02, 7.30598867e-02,
          1.33655250e-01, 1.50921671e-02, 4.62326072e-02, 1.87286422e-01,
          1.95838615e-01, 1.41675025e-01, 1.76592663e-01, 1.34334236e-01,
          1.06245905e-01, 1.48985013e-01, 3.87339406e-02, 9.25157368e-02 ]
      - [ 2.25791171e-01, 1.56683654e-01, 1.27272755e-01, 9.85517353e-02,
          2.80386228e-02, 8.62394050e-02, 1.00121751e-01, 0.,
          5.78149185e-02, 3.64163369e-02, 1.00958496e-01, 8.67663696e-02,
          1.12658165e-01, 1.59663200e-01, 1.85454100e-01, 2.11910829e-01,
          2.47353613e-01, 1.36027157e-01, 1.20844185e-01, 8.22347030e-02,
          5.67151234e-02, 0., 9.41209123e-02, 1.33600041e-01,
          1.21177420e-01, 1.49665028e-01, 0., 6.97638690e-02,
          1.13861404e-01, 1.81344360e-01, 1.94623232e-01, 2.38415748e-01,
          0., 0., 5.30678965e-02, 5.90613522e-02, 0., 1.35209635e-01,
          8.50830153e-02, 1.89925045e-01, 2.55705655e-01, 1.51089177e-01,
          1.48703769e-01, 1.24801196e-01, 0., 0., 4.80162054e-02, 0.,
          9.58899595e-03, 0., 0., 0., 1.65297061e-01, 1.67788625e-01,
          1.62962094e-01, 1.46537632e-01, 1.78796247e-01, 1.62364230e-01,
          1.67092815e-01, 2.02450022e-01, 0., 0., 0., 0. ]
      - [ 2.23868534e-01, 1.96251526e-01, 1.14500746e-01, 1.62477896e-01,
          1.11535545e-02, 7.69502996e-03, 9.00752768e-02, 4.00967896e-02,
          8.14996213e-02, 5.46018668e-02, 7.94826820e-02, 1.11604676e-01,
          1.39645576e-01, 1.53876349e-01, 1.96549445e-01, 1.90244958e-01,
          2.26130649e-01, 1.50460303e-01, 9.85447168e-02, 7.60905221e-02,
          8.47908109e-02, 7.95248449e-02, 7.75972381e-02, 8.23695436e-02,
          1.20354384e-01, 1.04939833e-01, 1.16747670e-01, 9.86338183e-02,
          1.86041802e-01, 1.47849113e-01, 1.66983947e-01, 1.73973322e-01,
          0., 0., 0., 7.89129287e-02, 4.64661382e-02, 1.36007309e-01,
          1.78836137e-01, 1.72448456e-01, 2.25553080e-01, 1.78111002e-01,
          1.31240427e-01, 9.67418328e-02, 4.87755761e-02, 3.76718119e-02,
          0., 0., 3.07987593e-02, 4.51287515e-02, 3.70973945e-02, 0.,
          1.53817832e-01, 1.93107605e-01, 1.54961705e-01, 1.04675487e-01,
          1.14108965e-01, 1.47975519e-01, 1.94535375e-01, 1.94331720e-01,
          3.15325633e-02, 9.37007293e-02, 1.19646236e-01, 0. ]
      - [ 2.17644438e-01, 1.18532777e-01, 8.49564821e-02, 1.05181828e-01,
          7.47814104e-02, 1.49928287e-01, 6.03713915e-02, 5.02343522e-03,
          1.05976127e-01, 9.72365588e-02, 7.64961839e-02, 1.20604843e-01,
          9.78568941e-03, 1.35947123e-01, 9.40219313e-02, 1.69230267e-01,
          2.75827944e-01, 6.13806173e-02, 8.28530919e-03, 5.09204529e-02,
          8.93307105e-03, 0., 9.09302756e-02, 1.05467223e-01,
          1.03726253e-01, 1.04327179e-01, 7.38832578e-02, 1.05204001e-01,
          1.11168595e-02, 7.53464326e-02, 1.01974592e-01, 8.46405327e-02,
          1.60315722e-01, 1.27992436e-01, 1.32824183e-01, 0.,
          1.87383220e-01, 1.64322615e-01, 8.74837935e-02, 1.27439409e-01,
          3.25421065e-01, 6.49773628e-02, 4.22573462e-02, 0.,
          5.74753061e-02, 1.10468656e-01, 9.84990299e-02, 1.35289550e-01,
          1.32616520e-01, 1.43091127e-01, 8.00244585e-02, 7.20975623e-02,
          7.69123361e-02, 1.31169438e-01, 1.66082293e-01, 1.55922428e-01,
          1.08194038e-01, 2.10572168e-01, 2.33095556e-01, 1.27367094e-01,
          1.04774266e-01, 1.59191981e-01, 1.81606591e-01, 7.85396695e-02 ]
      - [ 2.03042611e-01, 1.65193841e-01, 2.14041546e-01, 1.17481917e-01,
          9.81813893e-02, 8.30452740e-02, 7.79140741e-02, 0.,
          3.86673957e-02, 7.16459453e-02, 9.38026458e-02, 7.94242173e-02,
          1.16070949e-01, 1.81501865e-01, 1.79594561e-01, 8.15812424e-02,
          2.34096348e-01, 1.21619113e-01, 1.15502790e-01, 6.48314580e-02,
          1.15068913e-01, 9.59736407e-02, 8.28609690e-02, 7.43836015e-02,
          8.35708678e-02, 1.27461627e-01, 9.06563476e-02, 1.28582776e-01,
          1.01756081e-01, 1.71346650e-01, 9.77592990e-02, 1.38795882e-01,
          5.43491505e-02, 0., 9.53164697e-02, 6.26723245e-02,
          1.72390297e-01, 1.59913525e-01, 1.69740096e-01, 2.14494750e-01,
          2.04859793e-01, 7.08989277e-02, 7.79977441e-02, 7.58371577e-02,
          1.07126646e-01, 5.32483682e-02, 6.57217801e-02, 4.29592654e-02,
          9.96873975e-02, 9.28699449e-02, 7.65796900e-02, 5.68090491e-02,
          1.39381573e-01, 1.41622752e-01, 1.66834474e-01, 1.21379532e-01,
          2.07841486e-01, 1.39436662e-01, 1.64713815e-01, 1.87519148e-01,
          0., 7.74094537e-02, 1.58196971e-01, 1.12496816e-01 ]
      - [ 1.42970622e-01, 1.40295073e-01, 1.97621122e-01, 1.62042484e-01,
          1.15540586e-01, 3.50435153e-02, 3.80729213e-02, 4.51472737e-02,
          4.70081456e-02, 5.53319743e-03, 8.11868981e-02, 1.72400922e-01,
          1.11710392e-01, 1.46183372e-01, 1.78799286e-01, 1.43622428e-01,
          2.08700612e-01, 1.30511314e-01, 9.53063667e-02, 1.12373807e-01,
          1.08537218e-02, 1.77291706e-01, 5.03821559e-02, 5.91305867e-02,
          9.71549079e-02, 1.08861879e-01, 1.09527409e-01, 1.11571252e-01,
          1.38015464e-01, 7.50408992e-02, 1.39922470e-01, 2.03209728e-01,
          7.07889870e-02, 6.96100220e-02, 5.95054552e-02, 8.50536302e-02,
          1.94044665e-01, 1.07783265e-01, 8.65103975e-02, 2.45708242e-01,
          1.98434025e-01, 8.19746330e-02, 1.00586154e-01, 7.63770193e-02,
          7.18925009e-03, 6.38199896e-02, 7.25067854e-02, 6.88696802e-02,
          1.50991827e-01, 5.60817532e-02, 7.27113560e-02, 2.07530279e-02,
          1.18296139e-01, 2.13488042e-01, 1.05001569e-01, 1.24323949e-01,
          2.23065451e-01, 1.43944815e-01, 1.78019971e-01, 1.48663312e-01,
          3.09584904e-02, 1.21141404e-01, 1.22599199e-01, 1.17256582e-01 ]
      - [ 1.95475787e-01, 1.68325007e-01, 1.90919042e-01, 7.38861859e-02,
          9.68288109e-02, 8.93293843e-02, 5.73952822e-03, 0.,
          7.44699761e-02, 7.02945748e-03, 5.92821464e-02, 6.92972401e-03,
          7.36629516e-02, 1.66869730e-01, 1.06164910e-01, 6.71542361e-02,
          1.71559304e-01, 1.55871883e-01, 1.32259741e-01, 0.,
          6.06292859e-02, 1.31999657e-01, 8.09964314e-02, 5.15850000e-02,
          1.48108825e-01, 8.89974385e-02, 1.30802453e-01, 1.47186816e-01,
          7.75397476e-03, 1.04614057e-01, 2.13780880e-01, 1.19515762e-01,
          2.71298230e-01, 9.86859053e-02, 0., 5.53357005e-02,
          5.74182607e-02, 9.87723246e-02, 1.64459199e-01, 2.41742119e-01,
          2.67056137e-01, 1.45325422e-01, 4.35229503e-02, 4.29129833e-03,
          9.99714900e-03, 0., 1.44959455e-02, 0., 2.13868961e-01,
          2.69977432e-02, 0., 0., 0., 1.09149896e-01, 1.18250906e-01,
          1.77946091e-01, 2.97226250e-01, 1.03165664e-01, 1.59811869e-01,
          6.84376359e-02, 2.64989920e-02, 0., 1.01546496e-01,
          2.25668982e-01 ]
      - [ 1.91295683e-01, 1.05147921e-01, 1.33850843e-01, 1.88214362e-01,
          1.60429940e-01, 3.35312374e-02, 0., 2.21736073e-01,
          1.62596077e-01, 0., 0., 1.01932563e-01, 1.98446259e-01,
          1.23918079e-01, 1.15608528e-01, 2.39305869e-01, 2.25829676e-01,
          7.56291002e-02, 1.70834251e-02, 0., 4.53144964e-03,
          6.69701248e-02, 2.69441586e-03, 2.26598024e-01, 1.57004699e-01,
          5.25941141e-02, 8.85763839e-02, 6.40868768e-02, 1.24631181e-01,
          1.04726247e-01, 5.31968623e-02, 2.90843755e-01, 1.17804639e-01,
          9.24236476e-02, 7.71642774e-02, 9.81070101e-02, 1.02288105e-01,
          1.18170783e-01, 1.06876425e-01, 2.37186462e-01, 9.86130387e-02,
          8.24590623e-02, 0., 9.50472727e-02, 7.32199997e-02,
          5.42947128e-02, 8.61729532e-02, 9.97817442e-02, 6.59463033e-02,
          3.97940204e-02, 3.05036306e-02, 6.68607503e-02, 1.76435426e-01,
          9.72778052e-02, 4.33640145e-02, 1.07686073e-01, 9.11093503e-02,
          1.13979042e-01, 2.18132377e-01, 1.45174444e-01, 1.35696679e-01,
          1.37900308e-01, 1.19198926e-01, 7.92252272e-02 ]
      - [ 1.46636620e-01, 2.31821030e-01, 6.40675053e-02, 0.,
          1.38982711e-02, 4.82508689e-02, 5.83080994e-03, 0.,
          5.24831936e-02, 7.91706890e-02, 5.76863810e-02, 4.66857180e-02,
          6.73641786e-02, 6.85708746e-02, 1.90174714e-01, 2.16494024e-01,
          1.41752437e-01, 1.62683547e-01, 1.27710015e-01, 1.72959507e-01,
          6.47942796e-02, 9.41940323e-02, 1.11681387e-01, 6.22608000e-03,
          1.16863064e-01, 1.26119211e-01, 1.25069782e-01, 6.73430786e-02,
          5.92219122e-02, 1.92425624e-01, 2.03220189e-01, 1.39810488e-01,
          1.40311703e-01, 2.51585729e-02, 4.86400537e-02, 0.,
          8.36688355e-02, 7.98657387e-02, 1.10258371e-01, 3.26293170e-01,
          2.21882671e-01, 9.50579122e-02, 1.27955556e-01, 7.68781081e-02,
          0., 0., 0., 1.55584738e-01, 3.06398608e-02, 4.63707186e-03,
          2.79079117e-02, 0., 1.61160573e-01, 1.61490068e-01,
          7.92698711e-02, 2.43133426e-01, 1.52205631e-01, 1.14461653e-01,
          2.10967183e-01, 1.20671168e-01, 8.31737071e-02, 0.,
          8.52248967e-02, 2.31624782e-01 ]
      - [ 1.74111754e-01, 1.53118193e-01, 2.45646670e-01, 1.13121411e-02,
          8.01574513e-02, 1.16351977e-01, 7.60698086e-03, 1.10112876e-02,
          1.22948047e-02, 8.20100866e-03, 1.07941501e-01, 1.18844219e-01,
          1.22815534e-01, 9.88798365e-02, 6.07455485e-02, 1.32600516e-01,
          1.81967974e-01, 3.78796123e-02, 9.03686602e-03, 7.08025880e-03,
          3.87300141e-02, 7.14961067e-02, 1.17516331e-01, 2.85522342e-02,
          1.20572828e-01, 1.31085277e-01, 1.04031347e-01, 9.39911529e-02,
          5.06525598e-02, 5.95376454e-03, 9.22472030e-02, 2.94956207e-01,
          1.52269259e-01, 7.82824755e-02, 1.11506291e-01, 0.,
          4.25375029e-02, 1.09272815e-01, 2.07522199e-01, 1.95969582e-01,
          2.36719161e-01, 1.54891759e-01, 1.03781492e-01, 0.,
          5.63072274e-03, 6.42272159e-02, 1.25299111e-01, 1.10167727e-01,
          1.22876234e-01, 1.08031362e-01, 7.65261650e-02, 1.07180752e-01,
          1.04315437e-01, 1.49032697e-01, 1.49481192e-01, 1.68667302e-01,
          2.02736944e-01, 2.02866554e-01, 1.47278473e-01, 1.59927756e-01,
          1.45984575e-01, 1.13880552e-01, 1.72687396e-01, 8.19257796e-02 ]
      - [ 1.39178440e-01, 1.23656563e-01, 2.04380214e-01, 1.36160523e-01,
          1.62368834e-01, 1.64836615e-01, 5.76110408e-02, 5.27646840e-02,
          9.30859745e-02, 8.91515985e-02, 1.22825161e-01, 7.36239403e-02,
          1.22392528e-01, 2.09332690e-01, 1.79457411e-01, 9.81460586e-02,
          1.90415502e-01, 1.48491174e-01, 9.17416513e-02, 9.74566713e-02,
          1.26255438e-01, 8.09720382e-02, 1.15078188e-01, 6.19221553e-02,
          1.23431683e-01, 7.53368959e-02, 1.21466614e-01, 9.97606739e-02,
          1.16076507e-01, 1.59872547e-01, 1.56537578e-01, 2.36551076e-01,
          7.97518343e-02, 6.16873913e-02, 5.26937172e-02, 5.46821691e-02,
          1.04209051e-01, 1.50860429e-01, 1.56967819e-01, 1.86945960e-01,
          1.39308751e-01, 1.45144716e-01, 9.55094546e-02, 7.22038820e-02,
          2.28888411e-02, 4.62702624e-02, 5.57169728e-02, 1.80756971e-01,
          7.22734630e-02, 0., 0., 5.59773995e-03, 1.98533460e-01,
          1.54105574e-01, 1.21681444e-01, 1.33191347e-01, 1.38288453e-01,
          1.75898269e-01, 1.63964406e-01, 1.59824163e-01, 5.31156585e-02,
          6.93709701e-02, 9.66306776e-02, 6.25030547e-02 ]
      - [ 1.96114779e-01, 2.00494602e-01, 1.88988864e-01, 9.26476344e-02,
          4.43875156e-02, 6.20468520e-03, 6.97830133e-03, 7.62950554e-02,
          6.31435290e-02, 6.97830133e-03, 6.55441433e-02, 6.59051910e-02,
          1.41706377e-01, 1.90156803e-01, 1.97805673e-01, 1.51745707e-01,
          1.88687027e-01, 1.28291368e-01, 6.70168474e-02, 1.43363580e-01,
          6.82550818e-02, 6.79818243e-02, 1.16241733e-02, 1.13439038e-01,
          1.03600428e-01, 7.17051178e-02, 9.52733979e-02, 5.58300391e-02,
          1.56156078e-01, 1.79615200e-01, 1.58199370e-01, 2.92135835e-01,
          4.18460667e-02, 2.95364410e-02, 4.58142124e-02, 4.59797718e-02,
          1.24162748e-01, 5.72129078e-02, 9.54170749e-02, 2.54671693e-01,
          2.54519135e-01, 1.20539546e-01, 1.38641447e-01, 9.38365459e-02,
          6.60052970e-02, 0., 0., 0., 5.86802885e-03, 0., 0., 0.,
          1.68858826e-01, 1.87119156e-01, 1.42328486e-01, 1.21921293e-01,
          2.17229292e-01, 1.28460899e-01, 2.13808119e-01, 1.56037256e-01,
          0., 0., 0., 0. ]
      - [ 3.00457299e-01, 1.24278657e-01, 1.36127263e-01, 1.96719646e-01,
          1.35430275e-02, 4.79328446e-02, 1.37942895e-01, 1.70040265e-01,
          1.83018580e-01, 4.76951115e-02, 7.94018432e-02, 5.27988486e-02,
          1.61048576e-01, 1.31151780e-01, 6.19721077e-02, 1.05235547e-01,
          3.56695622e-01, 8.44228417e-02, 5.44497371e-02, 5.37712872e-02,
          9.04814750e-02, 8.64499584e-02, 1.10116206e-01, 1.43326923e-01,
          2.18025729e-01, 4.73208614e-02, 1.00274310e-01, 1.40075147e-01,
          3.37198488e-02, 6.05107173e-02, 3.10600009e-02, 7.24118873e-02,
          9.52541679e-02, 8.18484426e-02, 6.95649385e-02, 7.54750594e-02,
          1.57409295e-01, 6.77906275e-02, 1.88943490e-01, 1.81746021e-01,
          1.31437436e-01, 7.29928911e-02, 9.13244262e-02, 6.66313320e-02,
          8.69041122e-03, 1.10434338e-01, 5.96102700e-02, 4.91624027e-02,
          1.30481333e-01, 0., 8.23873281e-02, 8.84584188e-02,
          5.53263463e-02, 1.93311781e-01, 9.42370817e-02, 1.12539694e-01,
          1.68438300e-01, 1.58977687e-01, 1.35927022e-01, 9.06317979e-02,
          1.71875238e-01, 5.79737276e-02, 1.01578653e-01, 9.74842831e-02 ]
      - [ 2.04101935e-01, 2.07969338e-01, 1.66761279e-01, 1.13481849e-01,
          9.99513045e-02, 1.07242651e-01, 0., 5.81242852e-02,
          6.88455850e-02, 7.43142813e-02, 1.12713315e-01, 1.14243515e-01,
          1.25806227e-01, 1.71649471e-01, 1.84800208e-01, 1.23487666e-01,
          1.60417035e-01, 1.98992968e-01, 1.28680438e-01, 6.41059056e-02,
          7.13048652e-02, 5.78629188e-02, 7.24803880e-02, 8.79803076e-02,
          1.45684943e-01, 9.10438448e-02, 9.51447785e-02, 8.21996257e-02,
          1.17456317e-01, 1.66601717e-01, 1.64031655e-01, 1.36570200e-01,
          6.87318593e-02, 6.01540953e-02, 3.98363434e-02, 4.75824764e-03,
          1.73796460e-01, 1.45209208e-01, 1.24594644e-01, 2.88438797e-01,
          1.21651515e-01, 8.72758180e-02, 9.89926904e-02, 1.17774628e-01,
          1.13522857e-02, 0., 8.55473876e-02, 3.41021866e-02,
          1.13270432e-01, 9.03385729e-02, 0., 0., 1.54984266e-01,
          1.39369994e-01, 1.29402742e-01, 4.01464924e-02, 1.96248621e-01,
          2.15708181e-01, 1.97862297e-01, 1.06335931e-01, 1.19663598e-02,
          2.70121507e-02, 1.60637200e-01, 1.39051929e-01 ]
      - [ 2.29370862e-01, 7.88012445e-02, 0., 5.78447208e-02,
          1.46210818e-02, 0., 8.54819454e-03, 1.67794079e-01,
          2.43148640e-01, 1.33530810e-01, 3.47837545e-02, 5.73872309e-03,
          4.65499759e-02, 6.19505569e-02, 1.10681847e-01, 2.30513722e-01,
          2.60681480e-01, 1.80117086e-01, 2.56574564e-02, 1.12057254e-01,
          1.13654574e-02, 1.18234577e-02, 4.27409727e-03, 1.74845800e-01,
          1.68512762e-01, 9.14810505e-03, 0., 1.10370874e-01,
          1.08131364e-01, 6.82395250e-02, 9.20229033e-02, 1.54406279e-01,
          1.00078531e-01, 1.14349477e-01, 1.35211393e-01, 1.07123427e-01,
          9.37114283e-02, 6.25021160e-02, 1.09346025e-01, 2.07276121e-01,
          2.42110953e-01, 8.04936960e-02, 4.16613445e-02, 0.,
          2.80383993e-02, 9.78427753e-02, 2.32031673e-01, 1.14906877e-01,
          1.58418939e-01, 9.64290723e-02, 6.13679551e-03, 1.19010173e-01,
          7.00157434e-02, 7.95877203e-02, 9.85862017e-02, 2.24305987e-01,
          1.98257044e-01, 1.66792855e-01, 1.63184151e-01, 5.73872309e-03,
          1.38676330e-01, 8.31409693e-02, 1.32680148e-01, 6.26273975e-02 ]
      - [ 1.46636620e-01, 2.31821030e-01, 6.40675053e-02, 0.,
          1.38982711e-02, 4.82508689e-02, 5.83080994e-03, 0.,
          5.24831936e-02, 7.91706890e-02, 5.76863810e-02, 4.66857180e-02,
          6.73641786e-02, 6.85708746e-02, 1.90174714e-01, 2.16494024e-01,
          1.41752437e-01, 1.62683547e-01, 1.27710015e-01, 1.72959507e-01,
          6.47942796e-02, 9.41940323e-02, 1.11681387e-01, 6.22608000e-03,
          1.16863064e-01, 1.26119211e-01, 1.25069782e-01, 6.73430786e-02,
          5.92219122e-02, 1.92425624e-01, 2.03220189e-01, 1.39810488e-01,
          1.40311703e-01, 2.51585729e-02, 4.86400537e-02, 0.,
          8.36688355e-02, 7.98657387e-02, 1.10258371e-01, 3.26293170e-01,
          2.21882671e-01, 9.50579122e-02, 1.27955556e-01, 7.68781081e-02,
          0., 0., 0., 1.55584738e-01, 3.06398608e-02, 4.63707186e-03,
          2.79079117e-02, 0., 1.61160573e-01, 1.61490068e-01,
          7.92698711e-02, 2.43133426e-01, 1.52205631e-01, 1.14461653e-01,
          2.10967183e-01, 1.20671168e-01, 8.31737071e-02, 0.,
          8.52248967e-02, 2.31624782e-01 ]
      - [ 3.19971293e-01, 5.73758557e-02, 7.19085932e-02, 4.51778527e-03,
          1.07785873e-02, 0., 0., 7.04947487e-02, 2.86569506e-01,
          1.44162327e-01, 5.37258247e-03, 4.51778527e-03, 3.02578323e-02,
          5.97357787e-02, 4.05501649e-02, 1.02257676e-01, 2.84102201e-01,
          1.86493620e-01, 7.10539520e-02, 5.84916249e-02, 3.88627499e-02,
          0., 8.61081295e-03, 2.54282076e-02, 2.26812571e-01,
          1.06776230e-01, 0., 1.50507197e-01, 6.49071857e-02, 0.,
          1.10270008e-01, 1.17189884e-01, 1.15109965e-01, 1.19167276e-01,
          1.67212635e-01, 1.85623944e-01, 8.52083638e-02, 0.,
          9.57751125e-02, 1.09465271e-01, 2.94022769e-01, 8.51699039e-02,
          2.61657406e-02, 0., 3.64635698e-02, 1.19450420e-01,
          1.78062320e-01, 1.62084371e-01, 1.25335857e-01, 1.04450077e-01,
          5.66724166e-02, 1.00527532e-01, 1.15171529e-01, 9.30558611e-03,
          5.52485622e-02, 2.08692938e-01, 2.05509335e-01, 1.36457190e-01,
          1.79234162e-01, 0., 1.49255678e-01, 1.33753479e-01,
          5.83538599e-02, 4.51778527e-03 ]
      - [ 1.80045336e-01, 1.76361799e-01, 2.23599613e-01, 1.35401994e-01,
          1.22574970e-01, 6.82800189e-02, 8.82095192e-03, 5.33055095e-03,
          5.30673563e-02, 6.03336841e-02, 7.94039145e-02, 1.24391332e-01,
          1.35387436e-01, 1.56966031e-01, 1.63045332e-01, 1.78183228e-01,
          3.08931023e-01, 1.42559364e-01, 1.26796171e-01, 7.57528618e-02,
          2.56009977e-02, 7.75315166e-02, 7.28968903e-02, 6.80372119e-02,
          9.86534730e-02, 1.20466582e-01, 7.08269104e-02, 7.86642954e-02,
          2.43819822e-02, 2.02009484e-01, 1.50782540e-01, 1.49450690e-01,
          8.74688774e-02, 0., 6.78240806e-02, 8.30943063e-02,
          5.11650555e-02, 1.76342130e-01, 2.02125251e-01, 1.42548412e-01,
          2.42796555e-01, 1.27865583e-01, 1.28578797e-01, 0.,
          8.18315595e-02, 0., 6.11653663e-02, 0., 4.68238369e-02, 0., 0.,
          0., 1.30460471e-01, 1.95704401e-01, 1.39123514e-01,
          9.49490666e-02, 2.27773756e-01, 2.01131493e-01, 1.94729522e-01,
          6.73050061e-02, 5.46047091e-02, 5.24190255e-02, 0., 0. ]
      - [ 1.36944219e-01, 1.60273254e-01, 1.94220245e-01, 1.37026936e-01,
          1.17820926e-01, 0., 7.44775636e-03, 0., 7.06699044e-02,
          4.71037487e-03, 7.76190832e-02, 1.22306325e-01, 1.54119104e-01,
          1.38681903e-01, 1.58247337e-01, 1.51927993e-01, 1.77289620e-01,
          1.40708566e-01, 1.11165874e-01, 4.98061487e-03, 8.98133740e-02,
          3.35584953e-02, 6.17119558e-02, 1.34185061e-01, 1.64549261e-01,
          1.03376172e-01, 0., 7.04365317e-03, 1.08705252e-01,
          7.01830089e-02, 9.65769067e-02, 2.29187578e-01, 7.84167871e-02,
          9.63509008e-02, 3.90309058e-02, 4.24727090e-02, 1.71759799e-01,
          1.50059983e-01, 1.17922239e-01, 2.39065230e-01, 1.88594058e-01,
          7.61512741e-02, 1.37964725e-01, 1.01959586e-01, 4.82943207e-02,
          1.12483747e-01, 6.32435605e-02, 0., 1.06337719e-01,
          1.35159552e-01, 1.00710005e-01, 4.94469889e-02, 1.61128625e-01,
          1.75568014e-01, 1.80897430e-01, 1.10130861e-01, 1.54928952e-01,
